%YAML:1.0
my_svm: !!opencv-ml-svm
   svm_type: C_SVC
   kernel: { type:POLY, degree:3., gamma:1., coef0:1. }
   C: 1.
   term_criteria: { epsilon:1.1920928955078125e-07, iterations:1000 }
   var_all: 100
   var_count: 100
   class_count: 3
   class_labels: !!opencv-matrix
      rows: 1
      cols: 3
      dt: i
      data: [ 0, 1, 2 ]
   sv_total: 58
   support_vectors:
      - [ 2.88394867e+02, 1.92253876e+02, 6.15449829e+02, 2.24927078e+02,
          3.60181915e+02, -2.17115936e+01, 1.78482849e+02,
          -4.84887581e+01, -9.30063400e+01, 2.43735580e+02,
          3.33972931e+02, 1.98896042e+02, -6.83059998e+01,
          -2.67375244e+02, -1.54906063e+01, 1.10076180e+02,
          -8.33881454e+01, -5.65653801e+01, 4.93930550e+01,
          6.23389740e+01, 7.98712540e+00, -4.15250957e-01,
          4.96901703e+00, 1.04089592e+02, -1.26149583e+00,
          -5.93791962e+00, 5.36471291e+01, 1.66478367e+01,
          -2.74284019e+01, -1.72052479e+01, 3.63044798e-01,
          -6.27902069e+01, 1.11201725e+01, 6.10393095e+00,
          -3.13155079e+01, -3.18164196e+01, -1.26618433e+01,
          5.37909355e+01, 1.58227997e+01, 3.04208870e+01, 1.84875221e+01,
          1.21820765e+01, 1.51167762e+00, -3.17459183e+01,
          -7.09120035e-01, -4.42620392e+01, 3.13787231e+01,
          -3.03295689e+01, 1.95658417e+01, 4.79210377e+00,
          -3.02529907e+00, -3.15274658e+01, -1.40329428e+01,
          -2.32905178e+01, -9.07502365e+00, -2.22491884e+00,
          1.44701195e+00, 5.44095325e+00, -1.12665167e+01,
          -9.08089161e-01, -2.56790886e+01, -3.65515971e+00,
          8.40063953e+00, 7.05497122e+00, -2.41941452e+00,
          -1.88984025e+00, 3.68709588e+00, -1.01999779e+01,
          -2.02252941e+01, 2.84016460e-01, -2.55686235e+00,
          7.51061726e+00, -1.56268005e+01, -2.75639973e+01,
          3.09057093e+00, 1.03442554e+01, 7.07764816e+00, 6.27893591e+00,
          -9.81848812e+00, -1.53230667e+01, -1.81805534e+01,
          4.45901060e+00, -2.08748398e+01, -5.41564608e+00,
          -4.38412285e+00, 8.63412380e+00, 1.64859982e+01,
          -2.84172134e+01, 1.18889078e-01, -1.02782650e+01,
          -2.01133881e+01, 3.75311255e+00, -8.28194332e+00,
          4.19738674e+00, 1.69553394e+01, 2.79933786e+00,
          -1.23035040e+01, -7.73074770e+00, 3.08534765e+00,
          5.92960453e+00 ]
      - [ 1.90685046e+03, 3.35341217e+02, -2.09850342e+02,
          -4.18846779e+01, 5.71152573e+01, -2.08846237e+02,
          2.98323669e+02, -1.04956139e+02, -4.75928589e+02,
          1.77941422e+02, 6.90180283e+01, 8.05491333e+01, 8.08960190e+01,
          3.41126404e+01, -6.35822029e+01, -6.59192352e+01,
          1.15686331e+01, 8.02706146e+01, 5.86204948e+01,
          -4.32826462e+01, -1.36862000e+02, -1.18684799e+02,
          7.40389252e+01, -7.87494583e+01, -6.85857010e+01,
          -9.22585106e+00, -4.32275047e+01, 6.44452057e+01,
          -1.06712027e+01, -3.61873970e+01, -5.77800608e+00,
          -4.57882248e-02, -1.41907864e+01, 2.70477638e+01,
          -8.21970081e+00, -2.17967739e+01, -1.34078960e+01,
          -2.43142090e+01, -3.41504517e+01, 2.31274929e+01,
          -2.18556767e+01, -3.30286670e+00, -3.52983360e+01,
          1.05066452e+01, -1.89302807e+01, 4.06961098e+01,
          1.80006659e+00, -6.99903774e+00, -1.01045485e+01,
          6.82641506e+00, 5.22215347e+01, -3.42878509e+00,
          -3.66885543e+00, -1.07278385e+01, -1.60626278e+01,
          -9.95960140e+00, -9.15120220e+00, 2.00806122e+01,
          3.12706280e+01, 4.78105965e+01, 7.13573313e+00,
          -1.89590797e+01, 2.93448868e+01, -1.87221909e+01,
          -2.58542309e+01, -3.72922850e+00, -1.46631660e+01,
          -3.30227013e+01, 1.25840588e+01, -2.07250023e+01,
          -4.90080416e-01, 1.00594215e+01, 7.39688730e+00,
          6.47711420e+00, 1.77131672e+01, 1.99738407e+01,
          -1.85895042e+01, 2.99075089e+01, 1.63139210e+01,
          -2.65064907e+01, 3.25727119e+01, 4.74217834e+01,
          -2.25487690e+01, 1.31035733e+00, 1.40967941e+01,
          -2.78250790e+00, -1.31485474e+00, -3.90268230e+00,
          4.15896683e+01, -5.70317841e+00, 3.62815237e+00,
          7.92914486e+00, -2.37416248e+01, -1.32178745e+01,
          9.57682610e+00, 2.34215951e+00, -1.78036022e+00,
          -1.44741405e-02, -1.27504206e+00, 9.92631912e+00 ]
      - [ 5.47126282e+02, -1.51129663e+00, 1.00043098e+02,
          4.10944122e+02, 2.00167297e+02, -3.73127930e+02,
          1.48306847e+01, 1.77273911e+02, -9.20309143e+01,
          -2.14881531e+02, 2.05696030e+01, 2.88450074e+00,
          -2.42450500e+00, -5.98655283e-01, 4.17554436e+01,
          -2.00972778e+02, -2.62876831e+02, 4.71100426e+01,
          6.24234657e+01, -1.36579208e+02, 4.63940239e+01,
          2.36634064e+02, -2.32022232e+02, -1.23053528e+02,
          -1.06761200e+02, 1.60443897e+01, -1.30829916e+01,
          -3.73918986e+00, -4.46708565e+01, -1.53538666e+02,
          -6.35302544e+01, -5.62083321e+01, 2.07815208e+01,
          2.69896355e+01, -1.01100868e+02, 5.17102814e+01,
          1.74203014e+01, -1.82701950e+01, 7.57365341e+01,
          2.71998959e+01, 1.04830008e+01, -1.54293022e+01,
          -3.54743843e+01, 2.17292614e+01, 2.74555931e+01,
          -2.71594601e+01, 1.13277275e+02, 3.63875198e+01,
          -5.86320381e+01, -4.76801453e+01, 5.51887465e+00,
          -2.14179134e+00, 3.15441093e+01, 1.12383146e+01,
          -2.50981407e+01, 1.06327829e+01, -4.72935343e+00,
          -2.23732891e+01, -5.72313881e+01, 2.83167481e+00,
          2.44801064e+01, -5.03152418e+00, -9.33879185e+00,
          -4.49936485e+00, -2.17620831e+01, -1.78829918e+01,
          7.14032364e+00, -6.34133577e+00, 6.95815921e-01,
          -4.01163197e+00, -5.48440361e+00, 2.00064449e+01,
          -2.23321781e+01, -8.08341599e+00, -3.20537071e+01,
          1.02530470e+01, -8.04235935e-01, -2.17879314e+01,
          2.39201236e+00, -5.80975389e+00, 2.23026810e+01,
          -6.68268394e+00, -9.73859692e+00, 1.34526134e+00,
          4.50473696e-01, 8.78817463e+00, 5.51415300e+00,
          -2.32269526e+00, -3.38898373e+00, 5.49544621e+00,
          -1.56597729e+01, 7.94177246e+00, -1.09297314e+01,
          -3.43620110e+00, 6.36806786e-02, 6.62066460e+00,
          -7.22687125e-01, 6.28565073e+00, -1.05505838e+01,
          8.16041708e-01 ]
      - [ 2.27070068e+02, 2.82894440e+02, 6.90433228e+02,
          -1.06447639e+01, 3.11956726e+02, -3.70037003e+01,
          2.34544830e+02, -7.71780624e+01, -2.44765289e+02,
          3.24100616e+02, 3.65841827e+02, 2.03908264e+02,
          -6.03153725e+01, -2.87716248e+02, -6.56819382e+01,
          1.03986450e+02, -1.28273453e+02, -6.30974007e+01,
          9.54732513e+01, 2.35258865e+01, 7.13131256e+01,
          -1.37696896e+01, -3.74451599e+01, 1.21709381e+02,
          -4.86453133e+01, 1.85058117e+01, 8.79611588e+01,
          1.75814800e+01, 1.28658915e+01, -4.50549507e+01,
          7.98400450e+00, -9.66877365e+01, 2.74956226e+01,
          -2.57877588e+00, -1.36555319e+01, -3.61304359e+01,
          -3.08523293e+01, 3.34450264e+01, 1.50358791e+01,
          5.20589714e+01, 2.35513172e+01, -2.68360233e+01,
          7.73142576e+00, -1.33861141e+01, -1.49170771e+01,
          -5.26976891e+01, -5.53318202e-01, -5.42835464e+01,
          -1.93921909e+01, -3.44439735e+01, -2.38209419e+01,
          -1.19344759e+01, -1.18866711e+01, -4.27969284e+01,
          1.52550859e+01, 1.71485052e-01, 9.46879387e-01, 4.16093521e+01,
          3.75131488e+00, 2.43077564e+01, -2.97375221e+01,
          -8.90219784e+00, -3.34879799e+01, 3.25678778e+00,
          -1.18095815e-01, -1.65968170e+01, -1.17394419e+01,
          -1.84557476e+01, -3.03461838e+01, -3.47306180e+00,
          4.65100956e+00, 7.34012794e+00, -1.11989918e+01,
          -1.18401546e+01, 6.18550825e+00, -3.59734459e+01,
          -1.55025864e+00, 3.57175331e+01, -4.76123393e-01,
          3.30862770e+01, -2.20035863e+00, 5.20162964e+00,
          9.67389870e+00, -6.21546412e+00, 2.47474041e+01,
          -1.96420517e+01, -2.64394703e+01, 3.45613823e+01,
          -1.16725966e-01, 7.27060127e+00, 6.37336731e-01,
          -4.34470463e+00, 4.23325825e+00, 7.73593903e+00,
          -1.19590731e+01, 1.55101757e+01, 9.64952660e+00,
          -1.95125408e+01, -5.03860283e+00, -2.77328610e+00 ]
      - [ 1.86022131e+03, 1.57128708e+02, -1.11654716e+02,
          -2.08725388e+02, -1.17305794e+02, -1.28780441e+02,
          2.70232361e+02, -1.72559570e+02, -5.66840942e+02,
          1.92633041e+02, 1.37275528e+02, 3.96766396e+01, 1.15941231e+02,
          4.10071106e+01, -1.77479431e+02, -7.33797913e+01,
          -5.59176140e+01, 1.48427063e+02, 1.16696541e+02,
          -7.62352448e+01, -6.78730240e+01, -6.81648941e+01,
          1.43968811e+02, -1.23469261e+02, -1.10758438e+02,
          -1.75155067e+01, -1.09492477e+02, 3.08532314e+01,
          2.67686501e+01, -3.35446968e+01, -2.94132004e+01,
          2.63106861e+01, -1.60727139e+01, 1.04429115e+02,
          -1.21149836e+01, -1.22674608e+01, -1.67701283e+01,
          3.48882904e+01, -2.07019806e+00, -6.29791880e+00,
          -6.79376745e+00, 3.54722939e+01, -1.76915836e+01,
          -1.01870604e+01, -2.68226128e+01, -1.35435286e+01,
          -1.71240978e+01, 2.34938564e+01, -8.97334957e+00,
          -1.33483052e+00, -2.64788895e+01, 2.54192019e+00,
          -3.06237869e+01, 1.81098003e+01, 2.24435711e+01,
          -3.88101625e+00, -2.33402157e+01, -1.83274937e+01,
          7.73547363e+00, -2.53706722e+01, 9.90101147e+00,
          2.55753212e+01, -1.72160873e+01, -1.66762810e+01,
          3.60384865e+01, -7.00945199e-01, -3.13510346e+00,
          1.48021898e+01, 7.12669706e+00, 1.22009745e+01,
          -7.18522120e+00, 5.69623566e+00, -3.22109962e+00,
          1.17246447e+01, -1.65612755e+01, -1.85286884e+01,
          1.25809603e+01, -1.35640061e+00, 5.34995270e+00,
          2.47465076e+01, -1.13413315e+01, -4.83246574e+01,
          1.35531950e+01, -9.29148483e+00, 2.20837712e+00,
          6.37202930e+00, 1.03132896e+01, 1.47397728e+01,
          -2.44453106e+01, 2.38504362e+00, -8.79306602e+00,
          -2.00194383e+00, 1.78062534e+01, 1.75321937e-01,
          3.85351110e+00, -1.15589075e+01, -5.91931105e-01,
          -1.09486669e-01, 2.23464947e+01, -1.79399815e+01 ]
      - [ 1.86470428e+02, 2.94108337e+02, 7.14011414e+02, 1.44986435e+02,
          3.57261963e+02, -1.09466076e+01, 1.21713417e+02,
          -5.41652107e+01, -1.24280488e+00, 3.21832336e+02,
          3.55491302e+02, 1.40650726e+02, -1.49667263e+00,
          -2.91516174e+02, -6.69367142e+01, 1.67040359e+02,
          -2.64567928e+01, -3.63991022e+00, -1.06267220e+02,
          3.20493431e+01, 1.25932341e+01, -4.73383141e+01,
          6.24568291e+01, 1.63816895e+02, -6.34975357e+01,
          8.06291962e+01, 7.41512375e+01, -4.12117310e+01,
          -1.72832432e+01, 1.87501068e+01, 8.72080994e+00,
          -3.97008400e+01, -1.79616337e+01, 4.24040337e+01,
          6.91306992e+01, -9.06911850e+00, 1.96327763e+01,
          7.91918411e+01, 3.32113695e+00, -2.21272583e+01,
          -1.30746241e+01, 2.43256302e+01, -1.15714273e+01,
          -5.28720245e+01, -6.03114271e+00, -2.48639946e+01,
          3.79115999e-01, 2.19781952e+01, 8.39848816e-02, 1.76605492e+01,
          2.05601540e+01, -1.41083422e+01, 2.90270176e+01,
          -4.21080828e+00, -1.98851109e+01, 2.66087132e+01,
          9.04403627e-01, -2.99882126e+01, -3.10035920e+00,
          -2.75427456e+01, 1.08436775e+01, -4.41144218e+01,
          3.25043373e+01, 2.00840206e+01, -1.40812883e+01,
          -5.36251831e+00, -2.97565708e+01, -1.37024240e+01,
          1.12936974e+01, 3.53905716e+01, -2.15828075e+01,
          4.83379173e+00, 3.16336803e+01, 4.53813629e+01,
          -1.98138103e+01, 2.58576641e+01, 1.82460213e+01,
          -5.33850670e+01, 9.20692730e+00, -9.41137028e+00,
          1.55774641e+01, -1.05059290e+01, -4.08957672e+00,
          1.92639141e+01, -6.95307589e+00, 1.67260647e+01,
          9.99398518e+00, -2.90790224e+00, -1.28846016e+01,
          6.08416748e+00, 1.80588341e+01, 2.19661942e+01, 6.82611823e-01,
          -4.23765719e-01, -9.08897591e+00, -1.18504200e+01,
          8.32537830e-01, 2.12771282e+01, -9.66830611e-01,
          1.13036842e+01 ]
      - [ 4.03134888e+02, 1.96533875e+02, 2.05840286e+02, 5.67868530e+02,
          2.05422989e+02, 6.14285736e+01, 4.66778898e+00, 6.24287186e+01,
          -4.78075066e+01, 1.05321136e+02, 2.71232239e+02,
          2.89600555e+02, -7.90780106e+01, -5.99842415e+01,
          1.25945999e+02, 1.72583572e+02, -1.05549355e+02,
          5.11993828e+01, 1.64394760e+02, 1.04060524e+02, 6.00367393e+01,
          -2.09187660e+01, -1.19684303e+02, -1.15329178e+02,
          1.69007584e+02, -8.85047913e+01, 8.83889618e+01,
          -4.12606468e+01, -4.06321220e+01, 1.38586302e+01,
          -8.18784943e+01, 3.98797393e+00, 4.01771049e+01,
          -1.18023167e+01, 1.07534637e+01, -5.57334781e-01,
          -1.76070576e+01, -1.62975433e+02, -2.72296600e+01,
          5.09161987e+01, -4.56470718e+01, 5.07454491e+00,
          7.08907604e+00, 3.71980476e+01, 4.95099068e+01, 1.09377565e+01,
          7.41649780e+01, 1.62939949e+01, 6.19396477e+01, 2.34014034e+01,
          5.44201994e+00, 4.55223274e+01, -1.22918787e+01,
          2.74972324e+01, 8.42546940e+00, -1.61241388e+00,
          -5.77323103e+00, -1.48551881e+00, 4.90178261e+01,
          5.27052879e+00, -1.15554323e+01, -3.93188775e-01,
          -3.65629082e+01, 4.86424160e+00, 2.00675278e+01,
          -3.15011768e+01, -8.87039661e+00, 7.96951532e+00,
          3.06491508e+01, -1.05680065e+01, -2.60980721e+01,
          -1.22535381e+01, 3.76789284e+01, 4.31032848e+00,
          1.58150797e+01, -6.56005964e-02, 1.43643332e+01,
          -9.20891762e+00, 1.37498360e+01, -4.57306337e+00,
          1.59184017e+01, -1.44816895e+01, 1.59455481e+01,
          1.33682852e+01, 1.33135118e+01, 1.30386906e+01, 1.72214568e-01,
          -1.07963824e+00, -2.25305751e-01, -1.10416365e+01,
          5.13281775e+00, -8.64816761e+00, -7.71801710e+00,
          -4.28986502e+00, -3.76244736e+00, -3.98848438e+00,
          5.16037464e+00, -8.96255016e+00, 2.88781624e+01,
          6.03408623e+00 ]
      - [ 1.86139294e+03, 1.69397186e+02, -5.04243408e+02,
          -4.76869698e+01, 1.02947571e+02, -1.92639908e+02,
          2.23896805e+02, 1.04901024e+02, -3.13772430e+02,
          -8.52483063e+01, -1.27576279e+02, 1.38922485e+02,
          1.24671412e+01, 4.08106461e+01, 3.48638039e+01, 1.74828842e+02,
          2.04305313e+02, 2.54397202e+01, -3.76402245e+01,
          4.53264351e+01, 5.65847158e+00, 2.90976024e+00, 9.99147873e+01,
          -2.53123341e+01, 1.92677631e+01, -1.64707870e+02,
          8.23187637e+01, 2.07688975e+00, 6.42122459e+00,
          -2.85736961e+01, 1.09126709e+02, 3.11058655e+01,
          9.26653671e+01, 1.76904082e+00, -6.75114288e+01,
          1.62956276e+01, 4.98274689e+01, 3.60491028e+01, 5.91139641e+01,
          -6.11992493e+01, -1.50361919e+01, -4.37353859e+01,
          -1.10092819e+02, 3.45031700e+01, 8.17121792e+00,
          -3.48592644e+01, 4.36625862e+01, 5.36211395e+01,
          3.41765251e+01, 6.96258593e+00, 1.24304142e+01, 4.77872391e+01,
          1.44489145e+00, 3.36646500e+01, 5.29567337e+00,
          -6.70150146e+01, 5.15927315e+00, -2.53479824e+01,
          1.43331652e+01, 1.15486851e+01, -6.88759537e+01,
          -3.73013382e+01, 6.86019301e-01, 2.43275299e+01,
          2.04899426e+01, 2.24234943e+01, 1.08614483e+01,
          -3.78575778e+00, -2.65081997e+01, 2.13972321e+01,
          2.01976414e+01, -2.33685265e+01, -7.56237221e+00,
          -1.28126574e+01, -3.45188026e+01, 1.52698815e+00,
          7.34923029e+00, -1.36814442e+01, 1.73896194e+00,
          -5.16036797e+00, -6.31565619e+00, 1.14503031e+01,
          -1.65068665e+01, 8.44949341e+00, -1.01460540e+00,
          -1.09438705e+01, -5.20531464e+00, 7.75247335e+00,
          4.38317013e+00, 6.49037790e+00, 9.53252983e+00,
          -5.85623074e+00, 1.61019135e+01, 1.25255718e+01,
          -1.25433645e+01, -9.79885280e-01, -2.53226310e-01,
          2.68068242e+00, -1.03138514e+01, -4.94669294e+00 ]
      - [ -2.38235825e+02, 2.38863129e+02, 1.05331306e+02,
          7.30594788e+02, 2.79243988e+02, -2.27601349e+02,
          -1.07696007e+02, -1.95497086e+02, 1.64435394e+02,
          5.81829166e+00, 6.83718719e+01, 1.12507606e+00, 3.24571953e+01,
          -2.52010326e+01, 4.32238045e+01, -1.50247879e+02,
          -7.55127788e-01, 1.08141108e+01, -8.99674454e+01,
          -1.00530159e+02, 4.10601883e+01, 6.04534149e+00,
          9.36203613e+01, -3.71754532e+01, 3.90436440e+01,
          4.82314169e-01, -6.61715469e+01, 1.94025917e+01,
          -9.13656235e+00, 3.84884644e+01, -1.31017923e+01,
          4.32004585e+01, -1.92182903e+01, -5.49699745e+01,
          -1.14651241e+01, 4.89587498e+00, 6.11784840e+00,
          -4.14712143e+01, 7.61940384e+00, -1.80898857e+01,
          3.26722145e+01, -2.29976883e+01, -2.03705430e+00,
          3.95267677e+01, -7.00792770e+01, -3.09688492e+01,
          4.19809675e+00, -1.88851795e+01, -4.08534203e+01,
          -4.35940266e+00, 1.61854038e+01, -2.03920275e-01,
          3.95477867e+01, 1.26058683e+01, 8.08994865e+00, 4.24692345e+00,
          5.95787716e+00, -8.71875095e+00, 8.94137859e+00,
          1.08984547e+01, -3.07601948e+01, -2.05396671e+01,
          5.64614964e+00, 9.89673197e-01, 1.72005978e+01, 1.18507690e+01,
          -1.02219658e+01, -4.61917686e+01, -2.86444817e+01,
          1.26717844e+01, 6.08491611e+00, 1.49669600e+01, 8.03211308e+00,
          -3.42356491e+01, 2.54882050e+01, 5.80936098e+00,
          -1.19472141e+01, -3.46477485e+00, -2.31134248e+00,
          4.90764427e+00, 8.56886101e+00, -1.61113682e+01,
          -1.05409279e+01, -1.01458941e+01, -5.31963968e+00,
          1.15141363e+01, -1.86700878e+01, -4.31043339e+00,
          -2.31616898e+01, -3.78266335e+00, 1.34484329e+01,
          1.70247185e+00, 1.91610909e+01, -1.55709610e+01,
          1.33482103e+01, 5.32225668e-01, -5.44821119e+00,
          6.73373163e-01, 2.32843876e+01, 2.24771881e+01 ]
      - [ -5.22989136e+02, 3.34237976e+02, 2.84532837e+02,
          4.49998138e+02, 3.61123291e+02, -3.22743713e+02,
          -2.00097488e+02, -8.57340546e+01, 1.14975128e+02,
          -5.76021767e+00, 1.59779472e+01, -4.24473534e+01,
          1.00410896e+02, -2.19624207e+02, 8.23989487e+01,
          -1.72756195e+02, 2.43109055e+01, 6.12804260e+01,
          -1.09533859e+02, 1.60737362e+01, 3.70760422e+01,
          4.22269783e+01, -2.61567140e+00, 1.11739441e+02,
          8.26754379e+00, -7.46671772e+00, -9.37518005e+01,
          -1.22187023e+01, 2.51962070e+01, -6.27448463e+00,
          -5.65797901e+00, 4.63396339e+01, -2.07856522e+01,
          2.57192650e+01, 7.88001175e+01, -1.28449020e+02,
          9.82383347e+00, -8.83752823e+01, -2.62914314e+01,
          -4.60128441e+01, -3.46156540e+01, 1.89090118e+01,
          -5.92152939e+01, 1.27877579e+01, 7.56876278e+00,
          -1.25945005e+01, 2.50586815e+01, 5.52128754e+01,
          -1.04562197e+01, -8.55307198e+00, -3.01217003e+01,
          -7.55759621e+00, 3.62809873e+00, -1.79216347e+01,
          3.16116180e+01, -1.41502762e+01, 1.34855051e+01,
          7.25885439e+00, 2.20510674e+01, -2.81048946e+01,
          -1.20605192e+01, 1.19413013e+01, 3.84901962e+01,
          -5.83989449e+01, 2.77952366e+01, 1.85353165e+01,
          2.19124069e+01, -2.10692806e+01, 5.29802990e+00,
          -1.96486912e+01, -3.13337021e+01, 3.47789741e+00,
          -1.52574949e+01, -1.17696202e+00, -3.07143059e+01,
          -2.26785316e+01, 2.65248222e+01, 1.56722212e+01,
          -2.32324619e+01, 2.09431381e+01, 2.04201851e+01,
          -5.17868853e+00, 7.15961158e-01, 4.82426405e+00,
          1.04684887e+01, -1.26322384e+01, -2.20327282e+00,
          -2.75341034e+00, 1.71951294e+01, -1.33769283e+01,
          4.92176485e+00, 2.11518784e+01, -5.07178831e+00,
          -1.07196283e+01, -9.38714600e+00, 1.51171327e+00,
          -1.77444401e+01, -2.98485351e+00, -9.94279766e+00,
          -5.70502615e+00 ]
      - [ 5.45050964e+02, 1.09374069e+02, -3.39549622e+02,
          2.32449631e+02, 2.54300247e+02, -4.21053528e+02,
          1.66561386e+02, -1.36483185e+02, -1.86319534e+02,
          -4.91805611e+01, -7.24512253e+01, -7.39820786e+01,
          -4.89038887e+01, -6.84431763e+01, 1.41024750e+02,
          -1.56042847e+02, -1.95696926e+01, 2.05783634e+01,
          -3.21631508e+01, 2.67642155e+01, 2.46747189e+01,
          6.95580769e+00, -1.06777870e+02, 5.16556015e+01,
          2.42686996e+01, -6.06807213e+01, 5.71172237e+00,
          -2.32460518e+01, 5.38828993e+00, 2.71663246e+01,
          -5.86224136e+01, -4.28657684e+01, -9.58713722e+00,
          -4.90273972e+01, 7.48805542e+01, -4.66723537e+00,
          6.92410040e+00, 2.29389977e+00, 8.93829250e+00, 3.68790359e+01,
          2.29646740e+01, 4.65153217e+00, 1.24346037e+01, 1.61646461e+01,
          1.28819895e+01, 1.92054386e+01, 4.91220140e+00,
          -6.47365236e+00, 4.86038351e+00, -2.23887196e+01,
          -2.75522442e+01, -1.83224716e+01, -1.01750774e+01,
          1.39998827e+01, 6.55961800e+00, 2.52168541e+01, 5.97061205e+00,
          -1.56956663e+01, 2.08065910e+01, -5.02204561e+00,
          -1.16104565e+01, 1.30265417e+01, 2.95094910e+01,
          1.67922077e+01, -7.59347391e+00, 2.33136215e+01,
          -1.57976675e+01, -1.80889435e+01, 3.68549500e+01,
          1.62363338e+01, 2.46140480e+01, 7.98358011e+00,
          -7.83031893e+00, 2.12079716e+01, -2.14577293e+01,
          -2.42124805e+01, -1.09764528e+01, 2.89837551e+01,
          2.74730301e+00, 1.72230852e+00, -8.19751644e+00,
          -1.09689293e+01, 1.13281660e+01, -8.10102844e+00,
          -1.98988838e+01, 8.93482685e+00, -3.53986907e+00,
          2.10342431e+00, -6.85942841e+00, 3.72565031e+00,
          2.92264104e-01, 1.30321512e+01, 7.52903223e+00,
          -6.11635160e+00, -1.67876816e+01, 7.37170935e+00,
          -8.35843849e+00, 8.39343071e+00, -1.44631982e+00,
          -9.73752117e+00 ]
      - [ -2.92277740e+02, 2.46945190e+02, 3.10997791e+01,
          9.29196716e+02, 7.25585098e+01, 4.45072708e+01,
          -2.40964813e+02, -8.58894501e+01, 1.37037186e+02,
          -1.27027618e+02, 2.25903931e+02, 7.24776611e+01,
          6.21310196e+01, 1.15835075e+02, 9.05317154e+01,
          -6.47042389e+01, 2.27250824e+01, 3.59829254e+01,
          -4.42375832e+01, -1.01244020e+01, -1.76642060e+00,
          5.27306786e+01, 1.44226334e+02, 4.93379860e+01,
          -1.23761005e+01, -6.63127899e+01, -1.66494596e+00,
          9.38210297e+00, 5.26793823e+01, 4.03670425e+01,
          -6.43155518e+01, 2.02458310e+00, -7.38434677e+01,
          8.55108070e+00, -2.10105076e+01, 6.88728409e+01,
          9.76553726e+00, -3.10473537e+01, 1.77396126e+01,
          -5.56931534e+01, -2.06091156e+01, -9.74572449e+01,
          -2.23001137e+01, -2.09120059e+00, -5.97039108e+01,
          1.53746920e+01, 2.71794395e+01, -6.52938032e+00,
          3.41692276e+01, -3.30871239e+01, 6.35206270e+00,
          -2.81009560e+01, 3.46149635e+01, -4.61411552e+01,
          2.63825970e+01, -8.38393152e-01, 3.17671871e+01,
          5.06636467e+01, -8.93174458e+00, 1.54097195e+01,
          1.76999207e+01, -5.31326628e+00, -3.83351421e+00,
          -2.67723103e+01, -7.13484669e+00, -1.42867050e+01,
          2.86333389e+01, -4.44658966e+01, 2.74274998e+01,
          2.73053532e+01, -1.17788458e+01, -4.69147778e+00,
          3.90488195e+00, 2.45969162e+01, -2.79985476e+00,
          1.98602467e+01, -2.99787235e+01, -1.67987652e+01,
          -1.14741516e+01, -1.09937801e+01, -1.34833221e+01,
          -5.84923506e+00, 2.66014290e+00, -5.40661144e+00,
          2.73759212e+01, 3.41875577e+00, 6.97399330e+00, 1.92384129e+01,
          -1.30000181e+01, 1.48388243e+01, 1.20111351e+01,
          -4.84666014e+00, -2.41981578e+00, 8.79937553e+00,
          -1.05469599e+01, -1.66050930e+01, 1.77474689e+01,
          -2.29783211e+01, 4.95167398e+00, -1.74397697e+01 ]
      - [ 5.03117249e+02, 1.65296234e+02, -2.05026550e+02,
          4.16149109e+02, 2.48426331e+02, -2.90527740e+02,
          3.04627930e+02, -4.65496025e+01, -8.31850281e+01,
          8.03505020e+01, -9.42582855e+01, -8.14486008e+01,
          2.10721478e-01, -3.55720177e+01, 1.38831696e+02,
          -1.03125381e+02, -1.58589792e+01, 6.96976242e+01,
          9.81880646e+01, 3.09546661e+01, 5.29069672e+01,
          -6.48753662e+01, -1.03062027e+02, 5.83392181e+01,
          3.67835884e+01, -7.57599258e+01, -4.65850525e+01,
          3.80875893e+01, -6.14433632e+01, -3.07561798e+01,
          -1.02683990e+02, -1.55125532e+01, -6.07911491e+01,
          -7.04386978e+01, 5.24523811e+01, -1.75270214e+01,
          -2.08416958e+01, 8.45846832e-01, 3.70367432e+01,
          4.44191132e+01, 6.47086620e+00, 3.96762886e+01,
          -5.97698097e+01, 2.56161823e+01, -6.96512580e-01,
          6.28548164e+01, -1.26246614e+01, -3.84993706e+01,
          -2.94233665e+01, -3.49614000e+00, 5.45728731e+00,
          -1.09444895e+01, 4.78851604e+00, 1.30384626e+01,
          6.77485085e+00, 2.90143261e+01, 7.03515959e+00, 2.22652893e+01,
          4.08046484e+00, -1.94343357e+01, -3.57333145e+01,
          1.78336372e+01, 1.60797634e+01, 2.02707176e+01, 6.52469540e+00,
          2.95571709e+01, 1.71551342e+01, -1.94723244e+01,
          -2.95555706e+01, 9.78303528e+00, 2.33219070e+01,
          -1.04599991e+01, 4.28803015e+00, 1.72545681e+01,
          -1.76880531e+01, -4.99897146e+00, 1.63137455e+01,
          2.02039170e+00, 8.22200966e+00, -2.74384537e+01,
          -1.33554573e+01, 1.00587835e+01, 2.05741143e+00,
          -1.95365467e+01, -2.30762458e+00, -8.95646191e+00,
          2.83205528e+01, -3.86840677e+00, -2.88831234e+00,
          2.04007473e+01, 1.16876478e+01, -2.79454899e+01,
          9.97435570e+00, 1.83408833e+01, -3.30510283e+00,
          -1.32522416e+00, 4.97150850e+00, 9.40434277e-01,
          -2.42275763e+00, 1.53402824e+01 ]
      - [ -1.27921033e+03, 2.40885223e+02, 3.70785187e+02,
          7.71263123e+02, 1.72233780e+02, -2.57737293e+01,
          -1.68937256e+02, 3.72828140e+01, 2.06607788e+02,
          1.13205956e+02, -1.13981064e+02, -1.77875931e+02,
          8.09998894e+00, -1.09317291e+02, -2.35311050e+02,
          1.67393341e+01, 7.17578201e+01, 1.38441420e+00, 1.18774328e+01,
          -3.46049194e+01, 2.57092342e+01, 3.11971302e+01,
          2.35588741e+01, 8.50525055e+01, -9.26152802e+01,
          -1.12517258e+02, -1.04570595e+02, 6.44474792e+01,
          -8.99216003e+01, -4.46748161e+01, 1.44823189e+01,
          4.70799294e+01, 8.52426376e+01, 8.78581619e+00,
          -3.15144444e+01, -2.90917645e+01, 4.03107529e+01,
          6.94481201e+01, 2.80369425e+00, -2.41086998e+01,
          1.53609114e+01, -4.14098167e+01, 2.03224831e+01,
          4.30593796e+01, 5.59186134e+01, 5.31056366e+01, 6.07880402e+00,
          1.14710436e+01, 1.31811790e+01, -5.61442327e+00,
          -9.89485309e-02, 2.92198133e+00, 2.45985260e+01,
          -1.33536458e+00, -4.02038460e+01, 3.87868805e+01,
          -5.61467552e+00, -8.30144024e+00, 1.84182415e+01,
          4.53642654e+00, -2.65263729e+01, 4.03196907e+01,
          -1.40262384e+01, 2.12140675e+01, -4.94082642e+00,
          -5.05231133e+01, -2.07194557e+01, 2.88761749e+01,
          1.42343302e+01, 9.87076569e+00, -1.59203339e+01,
          -1.90848887e+00, 1.81846905e+01, 2.46055984e+00,
          1.32455244e+01, -1.38358593e+01, -8.83064842e+00,
          1.36324501e+01, 2.34591637e+01, 1.33306761e+01,
          -6.46900368e+00, 1.02760038e+01, 3.19787526e+00,
          2.92543526e+01, -1.90355034e+01, -3.15777378e+01,
          4.53588438e+00, -1.76789987e+00, 2.35129452e+00,
          1.04201527e+01, 1.80719719e+01, -5.20947874e-01,
          -2.81528711e-01, -1.24153023e+01, -4.60127211e+00,
          7.93694210e+00, -1.26980648e+01, -9.51628113e+00,
          -3.40278912e+00, -1.15327120e+01 ]
      - [ 2.37112274e+02, -2.13846695e+02, -7.51342041e+02,
          3.25482697e+02, -3.32054321e+02, 2.00400513e+02,
          -1.57528061e+02, 1.43044128e+02, -1.97285797e+02,
          -3.53154053e+02, 7.25040588e+01, -1.51322784e+02,
          -1.31069382e+02, -6.12015266e+01, -1.43894745e+02,
          -2.41937046e+01, 2.41361523e+00, -1.66831589e+01,
          3.07906265e+01, 7.38029251e+01, 3.35532570e+01,
          -2.41153812e+01, 1.28863831e+02, 8.57212143e+01,
          -1.50114412e+01, -7.55518112e+01, -6.68980942e+01,
          -4.59707413e+01, 9.71686478e+01, -1.74932075e+00,
          -9.16984863e+01, -2.02400723e+01, -3.13384438e+01,
          6.90806427e+01, -7.82718849e+00, 4.94933357e+01,
          4.14466476e+01, -3.22780380e+01, -5.46709023e+01,
          9.97458649e+01, -1.80016251e+01, -1.58085861e+01,
          2.38808346e+01, -2.38342094e+01, 2.41590157e+01,
          -4.83353767e+01, -1.31667318e+01, -1.12481422e+01,
          -5.47480125e+01, 1.08476448e+01, -1.28090944e+01,
          -4.40615416e+00, 3.89400840e+00, 2.43664665e+01,
          -6.12032032e+00, 5.76830826e+01, -3.78915334e+00,
          1.31562424e+01, -1.54409781e+01, 5.98513174e+00,
          -9.96360016e+00, -9.23283863e+00, -2.29950752e+01,
          2.72545204e+01, 2.92359695e+01, 2.04811287e+01, 4.11530151e+01,
          -5.48390007e+00, 7.68650770e-01, 1.83432674e+01,
          -4.74987537e-01, -3.19902344e+01, 2.39798145e+01,
          -3.90131836e+01, -1.79227142e+01, 1.98494606e+01,
          -6.97243595e+00, 8.18261528e+00, 2.09661350e+01,
          3.06692624e+00, -1.52092838e+01, 3.78846817e+01,
          1.53814955e+01, 9.23135185e+00, 2.25049438e+01,
          -1.03270655e+01, 1.60004330e+01, -7.12377310e+00,
          -7.30445671e+00, 1.10148497e+01, -4.72684097e+00,
          2.24157085e+01, -3.56400251e+00, -7.80671835e+00,
          -2.81194267e+01, 2.30134177e+00, -1.62745113e+01,
          1.39226112e+01, 4.90726852e+00, 1.08985720e+01 ]
      - [ 4.52021912e+02, -1.33911331e+02, -6.84215576e+02,
          2.11300430e+02, -1.53378113e+02, -6.31596527e+01,
          2.22919693e+01, 1.63335648e+02, -1.86194199e+02,
          -3.70501465e+02, 2.08821640e+01, -1.20306389e+02,
          -5.51806755e+01, -2.90446949e+00, -1.80225113e+02,
          2.76233425e+01, 9.14591751e+01, -5.72408180e+01,
          -8.24107590e+01, 1.08819595e+02, 7.60734482e+01,
          1.04564133e+02, 1.29708435e+02, -1.20155430e+01,
          3.00154476e+01, -2.01234341e+00, -7.05861053e+01,
          -6.25397987e+01, 1.19703476e+02, 1.77592754e+01,
          -1.09869728e+02, -4.04791451e+00, -1.75689077e+00,
          -2.79484119e+01, 2.61192226e+01, -3.65520782e+01,
          5.48945084e+01, 1.32631025e+01, 1.73090172e+01, 5.31269035e+01,
          2.20898476e+01, 1.69903984e+01, 2.32105136e+00, 4.05613947e+00,
          2.01230946e+01, -2.03458042e+01, 3.43459129e+01,
          9.31416512e+00, -2.36826363e+01, 2.73231697e+01,
          1.13376951e+01, 2.48860340e+01, -3.06741943e+01,
          -4.36039276e+01, 9.58524323e+00, -2.00356674e+01,
          -2.24095306e+01, 1.13602266e+01, -5.76799059e+00,
          -6.09615211e+01, 5.26107073e+00, -1.99215698e+00,
          1.65333347e+01, -2.39793491e+00, -2.17007561e+01,
          -3.08740139e+01, 2.65544605e+00, 1.31779041e+01,
          -4.70540886e+01, -2.56219807e+01, -1.78955822e+01,
          1.45918417e+01, 1.86373730e+01, 2.48766708e+01, 2.80568027e+01,
          1.13287318e+00, 4.76835632e+01, -1.05094070e+01,
          9.67073536e+00, 4.48038673e+00, -5.41558075e+00,
          -1.12340393e+01, -2.74112511e+01, 3.81196880e+00,
          8.74781322e+00, 9.30110073e+00, -2.21542692e+00,
          -5.49802542e-01, 1.56114120e+01, 1.62925491e+01,
          -6.40736961e+00, -2.96215987e+00, -4.08369589e+00,
          5.37381554e+00, 1.21289854e+01, 4.10824823e+00, 9.82242393e+00,
          4.89950418e+00, -8.19664955e+00, -1.19574938e+01 ]
      - [ 3.86884857e+02, 4.23620567e+01, -6.32565552e+02,
          4.21141998e+02, -3.25349693e+01, -1.07356537e+02,
          1.27352226e+02, -4.76080093e+01, -1.79949478e+02,
          -2.32684570e+02, -5.51007080e+01, -6.27579155e+01,
          -1.97124741e+02, 1.02536949e+02, 2.89978962e+01,
          1.88383603e+00, 1.09576508e+02, -5.48322411e+01,
          -4.05746365e+00, 1.08552139e+02, 3.74235382e+01,
          6.36914597e+01, 2.10630970e+01, 3.12215099e+01, 2.02795410e+01,
          -2.71941528e+01, -2.43735294e+01, 4.05145359e+00,
          1.21848961e+02, -4.18175840e+00, -7.73407974e+01,
          -4.73256950e+01, 2.05080223e+01, 2.44804096e+00,
          2.71538830e+01, 1.33281555e+01, 1.97626991e+01, 5.17808495e+01,
          3.96087608e+01, 3.65588837e+01, 6.65530300e+00,
          -6.32638702e+01, 2.57491302e+00, 1.97324696e+01,
          1.09375181e+01, -3.26354218e+01, -1.12660761e+01,
          1.14929657e+01, 4.74206209e+00, 7.69008815e-01,
          -3.11009541e+01, 2.40630226e+01, -3.30681190e+01,
          -1.68177128e+01, -1.32546473e+01, -1.49270840e+01,
          2.26187859e+01, -1.53039751e+01, 1.32812634e+01,
          1.76711655e+01, -6.42150688e+00, -1.77072487e+01,
          1.83787525e+00, 1.99733162e+01, -3.31206894e+01,
          -2.48397980e+01, -3.64446068e+01, -1.06238127e+01,
          4.94131203e+01, 9.74595928e+00, 3.48704033e+01, 1.13507309e+01,
          2.16264286e+01, 2.38497810e+01, -7.72659397e+00,
          9.67519855e+00, -4.13707972e+00, 2.67173386e+01,
          -2.35612888e+01, 7.06429386e+00, 3.90606523e+00,
          2.46335363e+00, 1.01211443e+01, -1.44387941e+01,
          -2.31865120e+01, 1.15021152e+01, -2.75921516e+01,
          1.14119301e+01, 7.41327572e+00, -2.58191738e+01,
          1.35526972e+01, 1.06671448e+01, -2.01109505e+00,
          -1.95161896e+01, 1.87496510e+01, -1.05338392e+01,
          -1.12520027e+00, 7.46068144e+00, 8.27515984e+00,
          8.97718430e+00 ]
      - [ 4.84326630e+02, -1.86788345e+02, -4.86466492e+02,
          5.40710938e+02, -1.32687744e+02, -6.43842602e+00,
          3.01656738e+02, -2.26715202e+01, -1.02949364e+02,
          -1.89940674e+02, -1.81052261e+02, -1.10029694e+02,
          7.52942276e+01, -5.54085617e+01, -3.25637283e+01,
          1.60095230e+02, -8.02835617e+01, 1.05068619e+02,
          1.77285446e+02, 3.89278793e+01, 7.94450378e+01, 8.47904739e+01,
          -2.81836128e+01, -4.82886734e+01, -3.89416084e+01,
          7.88897324e+01, -7.98127594e+01, -8.99904251e+01,
          -2.47325554e+01, 6.73407650e+00, -6.16263161e+01,
          -2.03876457e+01, 3.44479675e+01, -6.41037827e+01,
          -1.06597404e+01, 2.11741962e+01, -2.32093029e+01,
          3.71266594e+01, 3.14966679e+00, -4.78635559e+01,
          -5.18884802e+00, -2.11948280e+01, 4.63168945e+01,
          4.28384399e+00, -7.37872620e+01, -2.04452801e+01,
          -4.45656319e+01, 1.20249329e+01, 4.44577789e+01,
          1.48956089e+01, 1.43374271e+01, 1.38738775e+01, 2.92519779e+01,
          -2.44852161e+01, 3.92291737e+00, 1.50737581e+01,
          -6.44918633e+00, -5.90005035e+01, 1.59264784e+01,
          3.19210663e+01, 2.70863285e+01, -5.48587532e+01,
          1.43297358e+01, -1.91009483e+01, 3.17921486e+01,
          -1.16906176e+01, -2.79825726e+01, -3.10276279e+01,
          -8.04924011e+00, -1.48551865e+01, -2.30204086e+01,
          2.97788906e+00, 6.89829063e+00, -4.47930336e-01,
          -5.85681534e+00, -1.68407345e+01, 4.15940475e+00,
          -1.05287371e+01, 3.14831619e+01, -6.75021744e+00,
          -1.40743322e+01, 8.47624391e-02, 9.33820629e+00,
          -2.72165375e+01, -1.54895020e+00, -6.57938843e+01,
          1.26310091e+01, -2.07057238e+00, 3.58198524e+00,
          -7.62111378e+00, -1.25380754e+01, -2.78762245e+00,
          -1.03298149e+01, 1.23999662e+01, 1.01536627e+01,
          1.84610510e+00, -6.54994154e+00, -6.01991367e+00,
          1.79623866e+00, -9.20890331e+00 ]
      - [ -3.36839020e+02, -4.19744568e+01, -4.10098969e+02,
          8.67489136e+02, 8.13618164e+01, 1.36945023e+02, 3.17685795e+00,
          -1.03990326e+02, 1.53592777e+00, -2.12495651e+02,
          2.80758400e+01, 1.21980141e+02, -1.78458725e+02,
          1.16643005e+02, 1.99049744e+02, 1.07697937e+02, 2.16981216e+02,
          -2.14122868e+01, 7.79046936e+01, -6.91316910e+01,
          9.13124542e+01, -5.32931175e+01, 6.37172241e+01,
          -2.93854465e+01, 9.49652576e+00, 2.09099064e+01,
          6.90490875e+01, -6.03066673e+01, -5.64254684e+01,
          5.39537010e+01, 2.47226505e+01, 3.06558847e+00,
          -3.15048923e+01, 1.34294617e+02, -4.55513382e+01,
          1.94231868e+00, -2.12668667e+01, 2.11852436e+01,
          -2.87354279e+01, -6.23003197e+01, 1.28438053e+01,
          -8.36142159e+00, -6.47980118e+01, 1.80882111e+01,
          2.19537277e+01, -5.69511414e+01, -1.57568874e+01,
          2.10767651e+01, -1.69864902e+01, -2.94414902e+01,
          -2.26124115e+01, -2.40629673e+01, -1.23519354e+01,
          -5.37619019e+01, -7.29933739e+00, 3.64227753e+01,
          4.92420006e+00, 1.78550358e+01, -2.32735901e+01,
          -2.24578094e+01, 7.44022942e+00, 3.46131096e+01,
          1.01915464e+01, -1.04120588e+00, 7.96331215e+00,
          3.18153477e+00, -2.12620144e+01, 3.29969025e+01,
          -6.45673227e+00, -6.20188761e+00, -1.28361187e+01,
          -2.65398359e+00, -1.84461079e+01, 1.68008690e+01,
          -4.45894670e+00, -5.84724998e+00, 1.34598408e+01,
          1.00511570e+01, 3.82288361e+00, -3.59790039e+01,
          -2.44891052e+01, 1.79993272e+00, 3.22989540e+01,
          1.01342928e+00, -3.83064294e+00, -3.90980554e+00,
          -4.16512012e+00, -1.06241436e+01, 1.90958710e+01,
          -1.90318394e+00, -6.55233955e+00, 5.38943577e+00,
          -3.13890762e+01, -9.50433314e-01, -2.89360452e+00,
          1.95192280e+01, 2.30752487e+01, -2.07920380e+01,
          -5.13611615e-01, 7.04701996e+00 ]
      - [ 3.21662048e+02, -4.39122986e+02, -6.59829651e+02,
          4.03564117e+02, -5.91106323e+02, 3.76036743e+02,
          -3.75086731e+02, 1.31810684e+02, -9.09154587e+01,
          -3.42534363e+02, 6.20640030e+01, -1.40418732e+02,
          6.23737335e+01, -2.56888885e+02, -1.28099106e+02,
          -9.65419540e+01, -2.29861664e+02, -8.59360886e+01,
          1.16355980e+02, -2.36332923e-01, -9.68884811e+01,
          -1.40020279e+02, 1.10675755e+01, 1.06474525e+02,
          9.82107925e+01, -7.80525970e+00, -2.11743145e+01,
          -3.56382828e+01, -1.76312256e+02, -8.65293026e+00,
          8.56822128e+01, -4.75980148e+01, -4.44665337e+01,
          2.16846085e+01, 1.50681524e+01, 4.75959015e+01, 3.28771858e+01,
          4.87257957e+01, 2.42160320e+01, -1.96678143e+01,
          -7.91788559e+01, 4.94529839e+01, 2.78741608e+01,
          2.75316792e+01, 2.39142056e+01, -1.10788536e+01,
          3.12455025e+01, 2.32606831e+01, -8.81392479e+00,
          8.05339909e+00, 4.47459221e+00, -4.51136303e+00,
          5.41117706e+01, 4.70255623e+01, -3.11247635e+00,
          -3.70852127e+01, 1.74177399e+01, 1.35793467e+01,
          3.42815351e+00, 9.20403004e+00, -2.31309071e+01,
          5.05028582e+00, -5.28398275e+00, -2.36600685e+01,
          8.59234524e+00, 2.27128162e+01, -1.30779295e+01,
          4.66798019e+00, -2.17120337e+00, -1.42076540e+01,
          3.46205025e+01, 5.14592896e+01, 6.88784742e+00, 2.43306160e+01,
          1.91476860e+01, 4.33043003e+00, 1.24734011e+01, 7.02622795e+00,
          -2.14660625e+01, -2.92645144e+00, -1.61967125e+01,
          6.53606176e+00, 1.90696335e+01, 1.14243343e-01,
          -1.73852837e+00, -5.30249655e-01, -1.86483822e+01,
          3.02407112e+01, -5.61382294e+00, 1.00520146e+00,
          3.10099721e+00, 1.66413283e+00, -2.42529049e+01,
          8.98211002e+00, 1.10903692e+00, -1.57915630e+01,
          -4.07713938e+00, 6.93115282e+00, 2.25749826e+00,
          -7.61746025e+00 ]
      - [ -1.89007458e+03, -2.70441559e+02, 3.01168671e+01,
          -2.07412201e+02, -5.47837402e+02, -5.57761478e+00,
          1.90465302e+02, 2.95970398e+02, 2.07988327e+02,
          -7.46767426e+01, 2.95984802e+02, -4.88789139e+01,
          1.05877724e+02, -4.41800804e+01, 2.82205109e+02,
          -4.07231216e+01, 2.71864319e+01, -9.62094879e+01,
          9.43254547e+01, 1.82017193e+01, -2.29551788e+02,
          -1.63808472e+02, -6.44747543e+01, 1.20337341e+02,
          -2.39050217e+02, -1.07248756e+02, 7.54906082e+01,
          6.60089111e+00, -1.16506224e+01, 5.42965012e+01,
          -1.07321762e+02, 2.11008408e+02, 1.23597572e+02,
          -8.21053925e+01, -8.21332359e+00, 1.01967545e+02,
          4.16486244e+01, -2.28151226e+01, 3.46541901e+01,
          3.43452263e+01, -1.45686407e+01, -4.11221313e+00,
          -3.89084930e+01, -4.08228302e+01, -6.98855066e+00,
          -5.13702679e+00, 1.44758368e+01, 3.34449959e+01,
          -8.26735973e+00, 4.02349014e+01, -4.37925262e+01,
          -1.14306259e+01, -8.09001446e+00, -2.27641087e+01,
          -8.94448519e-01, 7.15800428e+00, 5.90058517e+00,
          2.96995306e+00, -3.79223323e+00, -2.57206039e+01,
          2.25077934e+01, -1.04963770e+01, 5.77815354e-01,
          -1.27727966e+01, 1.76749687e+01, -6.19110489e+00,
          -3.16794243e+01, 3.31595391e-01, -1.64745064e+01,
          1.26260640e-02, 1.85414581e+01, -8.67887497e+00,
          -1.30804336e+00, 5.86226845e+00, 1.20315571e+01,
          -1.26303539e+01, -1.38105450e+01, -3.60160756e+00,
          -4.61795092e+00, 1.49057722e+01, -6.53521681e+00,
          -7.46881533e+00, -2.84964347e+00, -1.17330637e+01,
          2.25728345e+00, 7.75090504e+00, -5.71117222e-01,
          -5.56529053e-02, 1.15765047e+01, 4.23470926e+00,
          -1.08035250e+01, -3.93696404e+00, -7.90441370e+00,
          -3.95047116e+00, 3.90342402e+00, 1.67130128e-01,
          -4.47351813e-01, 7.12131441e-01, 1.60997486e+00,
          3.16911793e+00 ]
      - [ -2.02532068e+03, -1.48546249e+02, -7.44437485e+01,
          -2.21658600e+02, -4.87385681e+02, 2.83131485e+01,
          2.85367065e+02, 3.16633057e+02, 4.37092857e+01,
          -1.19397682e+02, 3.19185974e+02, -1.62829269e+02,
          1.39719894e+02, -4.33674583e+01, 6.66228485e+01,
          1.49030952e+01, 1.15967766e+02, 6.84458389e+01,
          -1.65238743e+01, -5.56370239e+01, 4.88966064e+01,
          -5.74815521e+01, -9.09259224e+00, -3.80227470e+01,
          1.52331257e+01, 8.11248112e+00, 1.00306332e+00, 6.30063896e+01,
          5.81799812e+01, 6.25949144e+00, 1.69892979e+01,
          -2.59468479e+01, -1.42456341e+00, -1.79362583e+01,
          -2.33360910e+00, -4.58809814e+01, -1.98652306e+01,
          2.87930336e+01, 1.46051626e+01, 1.36220849e+00,
          -1.13500798e+00, -8.05434513e+00, 1.13044939e+01,
          1.97007599e+01, -1.93890750e+00, -2.06840401e+01,
          7.72790098e+00, -9.08610821e+00, 3.57404256e+00,
          4.94158125e+00, -9.32962418e-01, -8.68494320e+00,
          1.20776920e+01, 1.67322369e+01, -2.17220020e+01,
          -9.20139408e+00, -2.39370751e+00, 1.94198895e+01,
          4.00305748e+00, -1.97823868e+01, 9.69474506e+00,
          -6.23361254e+00, -5.81489754e+00, -7.09168768e+00,
          5.20093250e+00, -1.31667757e+00, 8.20883274e+00,
          -8.10711575e+00, 2.09100938e+00, -4.08786583e+00,
          4.09545004e-01, 8.75402546e+00, -3.07904863e+00,
          -7.08235598e+00, -1.42819510e+01, -1.74537487e+01,
          6.43687820e+00, 7.23180676e+00, -3.06786466e+00,
          -1.03368835e+01, 8.38075161e+00, -1.07561874e+01,
          6.56687856e-01, -2.76208830e+00, -1.55017958e+01,
          -4.05792570e+00, 6.49064016e+00, 2.26039028e+00,
          3.72993445e+00, -8.13081264e+00, 7.68925142e+00,
          -1.29452591e+01, -4.82906818e+00, 4.66929483e+00,
          1.82022047e+00, 5.06853008e+00, -9.24649239e-01,
          1.11372242e+01, -1.25721359e+00, -8.62097621e-01 ]
      - [ -2.04910229e+03, -1.76031952e+02, -2.31375198e+01,
          -1.67348984e+02, -4.80628357e+02, 2.94078941e+01,
          2.66521088e+02, 3.18395874e+02, 9.45915146e+01,
          -1.18450310e+02, 2.84961609e+02, -1.44509399e+02,
          9.13818207e+01, -2.21863327e+01, 9.80677414e+01,
          -1.14386582e+00, 1.37622543e+02, 4.77727928e+01,
          -2.76452713e+01, -3.24005241e+01, 2.92443542e+01,
          -4.52596207e+01, -4.37848520e+00, -5.08309174e+01,
          9.39265609e-01, 1.60856400e+01, 7.49584484e+00, 6.83114014e+01,
          3.36303101e+01, 1.14767618e+01, -1.91149497e+00,
          -3.77833023e+01, -1.71414956e-01, -1.33250895e+01,
          8.10420990e+00, -6.69350891e+01, -2.74691010e+01,
          1.99441662e+01, -9.42533970e+00, 7.69442987e+00,
          -1.75691490e+01, -2.03631134e+01, 3.35928726e+01,
          3.57595100e+01, -8.52989006e+00, -3.27868271e+01,
          -2.59684443e+00, 7.67312706e-01, 8.30790329e+00,
          3.49837494e+00, -4.12437105e+00, -2.30610752e+01,
          8.98957825e+00, 1.34964294e+01, -3.35077705e+01,
          -1.25884724e+01, -1.94106331e+01, 1.34024754e+01,
          1.14095774e+01, 7.46418285e+00, 1.15658255e+01, 5.05849695e+00,
          -2.98444247e+00, 9.60515404e+00, 8.20245838e+00,
          -4.80860329e+00, 8.70482159e+00, 4.01559019e+00,
          3.71486282e+00, -1.24534292e+01, -1.19441099e+01,
          1.43893347e+01, -4.45233107e+00, 2.70992827e+00,
          -1.54255991e+01, -6.26972771e+00, -3.80686730e-01,
          7.83960938e-01, 5.70567703e+00, 2.75750518e+00,
          -6.74912989e-01, -6.70812178e+00, -2.04907942e+00,
          8.79877663e+00, -1.45755930e+01, 4.52527905e+00,
          -6.82663918e+00, -6.36822796e+00, 4.32626581e+00,
          5.73297071e+00, 6.35851049e+00, -1.20316687e+01,
          3.14947200e+00, -1.78431702e+00, 5.03071785e+00,
          5.31002998e+00, 2.20570207e+00, 3.00735807e+00,
          -5.12740850e+00, 7.29662371e+00 ]
      - [ -2.11398218e+03, -1.64909775e+02, -8.93720016e+01,
          -7.18336563e+01, -4.62210236e+02, 6.46346436e+01,
          2.53228577e+02, 3.38030060e+02, -1.75519314e+01,
          -1.25761993e+02, 2.60353119e+02, -1.31073166e+02,
          1.18409065e+02, -4.20654373e+01, 1.83338013e+01,
          3.20169716e+01, 8.47753677e+01, 1.29232391e+02,
          -4.58760071e+01, -6.73370819e+01, 6.60525513e+01,
          9.96876240e+00, -5.65684843e+00, -5.44790535e+01,
          4.33987541e+01, 2.40280685e+01, -2.51931610e+01,
          3.81155128e+01, 3.52846794e+01, -2.20341206e+01,
          2.41724167e+01, -4.00532455e+01, -3.15590801e+01,
          1.96891844e+00, -5.86833858e+00, -3.45866852e+01,
          -8.91301632e+00, 1.71190014e+01, -3.51759887e+00,
          -5.25876570e+00, 1.23689508e+01, -8.06937313e+00,
          6.54296064e+00, 6.14255142e+00, 5.68810797e+00, 1.91160183e+01,
          1.30315838e+01, -1.35176964e+01, 3.13435669e+01,
          -3.90360284e+00, -7.58553171e+00, 4.06060362e+00,
          -8.41490650e+00, 9.91889763e+00, -7.36078882e+00,
          1.57851295e+01, -2.13030205e+01, 8.41806984e+00,
          9.18704987e+00, -1.89699917e+01, -2.07063217e+01,
          -1.95284805e+01, -4.14421511e+00, 2.91283160e-01,
          -4.36133242e+00, 1.67330227e+01, 1.08276730e+01,
          8.21763229e+00, 1.20321617e+01, 2.23889313e+01, 7.91762161e+00,
          1.00659561e+01, -6.01721239e+00, 1.85182714e+00,
          1.22999344e+01, 1.25523920e+01, -1.17659273e+01,
          6.31110594e-02, 5.49719667e+00, -7.68281364e+00,
          9.87639809e+00, -3.17776752e+00, 3.33205771e+00,
          -8.03129673e+00, 1.44730406e+01, 6.71184397e+00,
          3.50807643e+00, 9.00158024e+00, 8.57612729e-01, 3.82563639e+00,
          -8.08758926e+00, 5.01649380e+00, -8.86452770e+00,
          1.77410018e+00, 5.73523045e+00, -2.87324786e-01,
          -7.16785491e-02, -1.48805606e+00, 7.00813818e+00,
          -1.39577656e+01 ]
      - [ 2.80162567e+02, -2.09824257e+01, 2.48623840e+02,
          6.63987976e+02, 3.78328796e+02, 1.10612999e+02, 1.59735718e+02,
          -1.09591904e+01, 2.29904984e+02, 2.09658871e+01,
          1.18566536e+02, 2.12327850e+02, -1.01822090e+02,
          2.09779263e+01, 1.34683060e+02, 8.27047272e+01, 7.15176849e+01,
          3.19259338e+01, -3.40901527e+01, -7.50153732e+01,
          -4.63974686e+01, -4.15140076e+01, 6.91362000e+01,
          -8.09892502e+01, 2.58039093e+01, 5.82082748e+01,
          -4.22435341e+01, 2.06807923e+00, 2.76242809e+01,
          -1.03845596e+01, -1.55112638e+01, 7.79006243e+00,
          1.52285051e+00, 2.06042500e+01, 2.53766708e+01, 2.14608326e+01,
          8.38107395e+00, -3.21694350e+00, 9.35679913e+00,
          4.27484283e+01, 8.67590141e+00, 5.44136314e+01, 3.09163437e+01,
          2.52556076e+01, 1.42944307e+01, 3.75013199e+01,
          -3.38632126e+01, 7.13875675e+00, -3.35442200e+01,
          4.49853821e+01, 5.92118788e+00, 3.11986027e+01, 1.51901045e+01,
          2.46395512e+01, -2.21570702e+01, -7.79594898e+00,
          -1.54026375e+01, -4.66435051e+01, -7.87244892e+00,
          -2.30096436e+01, -2.08419585e+00, -2.06476498e+01,
          -2.88618813e+01, 4.20539379e+00, -3.52874527e+01,
          1.29749146e+01, -1.03637228e+01, -1.43458712e+00,
          -2.68687401e+01, -1.42640810e+01, -9.62912369e+00,
          1.61212482e+01, -3.48752022e+00, -7.83747292e+00,
          -9.56547165e+00, -2.60085136e-01, -1.96382408e+01,
          6.95397854e+00, 1.64606838e+01, 7.77660704e+00,
          -2.14521465e+01, 1.56595838e+00, -1.51721358e+00,
          -1.15170641e+01, -1.05459785e+01, 6.85728455e+00,
          -1.45059264e+00, 1.54384403e+01, -1.74318409e+00,
          -4.00452733e-01, 7.84597921e+00, 1.27551746e+01,
          -8.53556347e+00, -6.89811420e+00, -1.19344101e+01,
          1.05382624e+01, -4.43721724e+00, -1.48589258e+01,
          -3.32361436e+00, 4.42961168e+00 ]
      - [ -1.61664246e+03, 3.04959076e+02, -4.91113251e+02,
          2.48647827e+02, 4.52644005e+01, -2.41164444e+02,
          8.00054169e+01, -2.70959381e+02, -1.38359222e+02,
          7.58167953e+01, 8.71042633e+01, -5.06530685e+01,
          -1.05179386e+01, 1.07555603e+02, -4.19164151e-01,
          -8.69437256e+01, -5.97561913e+01, -1.71309692e+02,
          -7.80950165e+01, -3.30943031e+01, 2.89634895e+01,
          3.50301027e+00, -6.69996414e+01, 6.23320274e+01,
          6.56332169e+01, 2.41246281e+01, 2.44322128e+01, 2.90621529e+01,
          3.13702717e+01, 9.31804085e+00, 5.02664566e+01, 5.39279890e+00,
          2.14720898e+01, -1.59527836e+01, 4.30650444e+01,
          9.11660385e+00, -1.99703097e-01, -1.95668907e+01,
          -2.91560822e+01, -8.42282867e+00, 1.44470329e+01,
          2.34690666e+01, -3.38117332e+01, -1.67762184e+01,
          5.41170692e+00, 3.07044315e+01, -1.00209990e+01,
          1.97792282e+01, -1.77824247e+00, 6.19522476e+00,
          -3.14789724e+00, -6.19881010e+00, -2.69933300e+01,
          1.64189186e+01, -7.05363560e+00, -1.16942053e+01,
          1.63811123e+00, -5.64368296e+00, 1.13078098e+01,
          1.36809742e+00, -2.98084354e+00, 5.08335686e+00,
          -5.61832142e+00, 1.12985420e+01, 1.77739105e+01,
          3.73246431e+00, -6.35678291e-01, -5.95294094e+00,
          -2.10947361e+01, -2.46174889e+01, 1.16567659e+01,
          1.19969339e+01, 2.17003167e-01, -7.69552135e+00,
          -4.69076204e+00, 6.98552513e+00, 1.28099689e+01,
          -2.10711021e+01, 1.65411186e+01, -1.50158072e+00,
          -1.84358299e+00, -2.38885736e+00, 9.51722813e+00,
          2.68533349e+00, 1.01588714e+00, -9.93141079e+00,
          7.78932571e+00, 1.29034691e+01, 3.16338563e+00,
          -1.16771758e+00, -1.30199995e+01, 7.53888988e+00,
          5.82492781e+00, -1.25791779e+01, -1.32493722e+00,
          1.30813103e+01, 1.18939838e+01, -6.00503159e+00,
          5.02158451e+00, -3.20819330e+00 ]
      - [ -1.78733887e+03, 1.51065781e+02, -4.17232269e+02,
          3.42246429e+02, 3.62916374e+00, -1.50624420e+02,
          1.15241997e+02, -2.58716858e+02, -1.10829918e+02,
          9.55993195e+01, 1.71725483e+01, -1.27003746e+02,
          -7.48854017e+00, 7.42582550e+01, -9.54713364e+01,
          -2.24548798e+01, -1.41983978e+02, -1.43003891e+02,
          1.44422264e+01, -4.34576607e+01, 4.45372620e+01,
          2.78481464e+01, -6.97551651e+01, 4.04759598e+00,
          1.98579502e+01, 4.53726463e+01, -2.17705383e+01,
          9.21103973e+01, -2.07176151e+01, -2.44328957e+01,
          7.30682850e+00, -5.97809029e+00, 5.14910126e+01,
          -1.33006582e+01, -3.48054962e+01, -7.89273882e+00,
          2.45880203e+01, -3.92773209e+01, -5.74616289e+00,
          -4.49291992e+01, 2.96237850e+01, 1.59922581e+01,
          4.33325863e+00, 1.96034641e+01, -3.30656319e+01,
          -3.25284233e+01, -5.52651787e+00, -2.52565098e+01,
          8.24139977e+00, 5.41786146e+00, -3.58170967e+01,
          2.08081684e+01, 1.23873281e+01, 1.40275872e+00,
          -1.19928846e+01, 8.80359650e+00, 2.11532249e+01,
          -5.57336450e-01, 2.59717102e+01, -4.02878075e+01,
          3.08557911e+01, 1.07995052e+01, 2.37702923e+01, 1.63181801e+01,
          7.50802898e+00, -7.29114151e+00, -8.91762257e+00,
          9.21595001e+00, 1.91824809e-01, -2.07791405e+01,
          2.36266232e+00, 2.45722547e-01, -4.60150223e+01,
          8.89208221e+00, 2.49618034e+01, 2.63744564e+01,
          -1.81431713e+01, -1.55162084e+00, 1.53529282e+01,
          8.17562103e+00, -2.41029148e+01, 1.68651676e+01,
          -1.39297705e+01, 2.00888824e+01, 1.01283054e+01,
          2.64349270e+00, -2.24981918e+01, -2.72684145e+00,
          1.24086943e+01, 3.19967341e+00, 6.85106575e-01, 2.54936485e+01,
          1.26809025e+01, 2.81532593e+01, -2.51778221e+01,
          -2.40920162e+01, 7.43235445e+00, 1.87570381e+01,
          3.18450794e+01, 1.32841024e+01 ]
      - [ 4.24536591e+02, 4.25480316e+02, 3.51663391e+02, 6.59923767e+02,
          2.00600281e+02, -1.64366180e+02, 8.95676041e+00,
          1.80004959e+01, 2.00410843e+02, 1.05165359e+02, 1.46809662e+02,
          1.45423050e+02, -7.61301575e+01, -1.52789230e+02,
          -6.20555534e+01, -5.29869232e+01, 1.93972092e+01,
          5.68737946e+01, -1.26327728e+02, 5.17943459e+01,
          5.01878433e+01, 6.56026535e+01, -3.92963486e+01,
          -1.38358517e+01, 5.54373074e+00, 1.28064194e+01,
          -8.67009735e+01, 9.74460220e+00, 4.84394073e+01,
          -5.01290207e+01, 5.68898811e+01, 4.64761314e+01,
          -1.67462940e+01, 1.28762140e+01, 9.87755966e+01,
          5.35580063e+01, -1.13144903e+01, -3.01107235e+01,
          1.25724707e+01, -1.51397409e+01, -5.31525040e+01,
          4.33331985e+01, -3.59391975e+01, -1.49825869e+01,
          1.22121944e+01, -8.24367752e+01, -1.22340899e+01,
          3.63250160e+01, 2.48734951e+01, -4.28271904e+01,
          -1.79443398e+01, 9.57812309e+00, -7.87810135e+00,
          -2.83327427e+01, 6.23196650e+00, -1.62298222e+01,
          1.28753376e+01, 2.24699478e+01, 2.70642490e+01, 2.62759037e+01,
          5.22990189e+01, -5.26764536e+00, -1.56872568e+01,
          2.84644337e+01, 6.01068640e+00, 2.78163452e+01,
          -2.44587469e+00, 4.91563339e+01, 1.91505318e+01,
          3.58115101e+00, 3.33781166e+01, 2.49346113e+00,
          -3.07429528e+00, 7.41571808e+00, 5.89810228e+00,
          -1.19735670e+01, -3.27275391e+01, -5.09882593e+00,
          3.68394566e+00, 1.22088652e+01, 9.73819447e+00, 1.81650543e+01,
          -8.53207588e+00, -1.47329359e+01, -1.18275948e+01,
          -2.41754150e+01, 2.50454998e+01, -2.84535351e+01,
          8.06536102e+00, 2.49584961e+00, -8.87771797e+00,
          -9.41087914e+00, 2.27629900e+00, 6.67601156e+00,
          1.17561855e+01, -5.44871151e-01, -9.73415184e+00,
          1.59037561e+01, 6.28845692e-01, -7.60198164e+00 ]
      - [ 1.96391980e+03, 1.13026154e+02, -6.83086121e+02,
          -3.01512512e+02, 1.35058640e+02, 1.17731857e+02,
          -1.54124969e+02, 3.86194672e+02, 2.51782944e+02,
          -1.25118935e+02, 2.65311756e+01, 7.32319031e+01,
          -1.25153484e+01, -7.01153717e+01, -1.08702675e+02,
          1.53636841e+02, 1.25439865e+02, -7.51680527e+01,
          -5.27663374e+00, -2.32552605e+01, 1.01786507e+02,
          2.75133850e+02, 7.59783478e+01, 2.36561432e+01,
          -8.21629486e+01, 2.18100357e+01, 9.67754669e+01,
          -2.76737175e+01, -4.73452988e+01, -2.48353481e+01,
          -1.86156158e+01, 4.51279984e+01, 5.26902616e-01,
          -1.33835402e+01, -3.65554352e+01, -6.12494278e+01,
          -2.11939220e+01, 2.77304859e+01, -3.22801514e+01,
          6.25336151e+01, -2.62554436e+01, 3.74998245e+01,
          -1.33494530e+01, -3.43632507e+01, -1.04799324e+02,
          5.51716423e+01, 1.68646660e+01, 6.40394211e+01,
          -2.70318012e+01, -6.26896000e+00, -8.35681343e+00,
          2.86975884e+00, -1.77131863e+01, 1.81874981e+01,
          9.50632572e+00, -3.45478783e+01, 4.91705418e+00,
          1.25960741e+01, 5.04208527e+01, -4.14175844e+00,
          -3.52646172e-01, 7.05249023e+01, -1.62439709e+01,
          -2.54286079e+01, -1.46765318e+01, 2.28717442e+01,
          -4.40818405e+01, -2.33314857e+01, 2.79197845e+01,
          -4.45445585e+00, -1.39997292e+01, 3.52029152e+01,
          1.88151193e+00, -2.13147469e+01, 1.51457376e+01,
          2.58444142e+00, -1.01767626e+01, 5.56804323e+00,
          -2.52210832e+00, 2.27294660e+00, -1.43562479e+01,
          1.46465750e+01, 4.96774626e+00, -9.02934551e+00,
          1.29068441e+01, 9.96061802e+00, 1.56918507e+01,
          -9.06101799e+00, -1.61192398e+01, 8.97049141e+00,
          8.75785542e+00, 2.24096012e+00, 9.39729023e+00, 1.72890794e+00,
          -2.29517412e+00, 5.46151924e+00, 3.56266832e+00,
          2.58260798e+00, -7.10822582e+00, 1.22057486e+01 ]
      - [ 8.71140015e+02, 8.34003723e+02, 3.69204590e+02,
          -1.08782097e+02, -1.08310509e+02, 3.78221321e+01,
          -1.04624252e+02, -2.12907085e+01, 5.18673248e+01,
          -2.25771164e+02, 5.23462753e+01, -1.05235764e+02,
          -2.47599670e+02, 6.58045959e+01, 1.20049484e+02,
          -1.70567799e+01, -1.67245667e+02, 1.17040215e+02,
          -1.24343788e+02, 5.91373978e+01, -3.37673035e+01,
          9.55071030e+01, -3.68819923e+01, -8.21918869e+01,
          -7.57386398e+01, -6.65196457e+01, 8.97324657e+00,
          1.04094612e+02, -3.57896118e+01, 4.71602097e+01,
          4.29470978e+01, -5.49889908e+01, -8.35390396e+01,
          -3.18365622e+00, -6.93639145e+01, -2.89953918e+01,
          2.21192818e+01, 2.34203577e+00, -4.51115227e+01,
          1.31518173e+01, -1.32216816e+01, 6.87094164e+00,
          -1.53697042e+01, -5.71677017e+01, -2.14290752e+01,
          -2.03796329e+01, 9.19035256e-01, 2.23441625e+00,
          -1.50510950e+01, 2.85976543e+01, 9.60002041e+00,
          -4.09168320e+01, -6.02498436e+00, 2.77494316e+01,
          3.06269217e+00, 9.07079160e-01, 3.64379997e+01, 1.24757462e+01,
          -1.81705456e+01, -2.47050457e+01, -4.03320646e+00,
          -1.54900799e+01, -9.47559547e+00, -8.16521835e+00,
          1.06777983e+01, -1.78397179e+01, -6.30094671e+00,
          2.08244591e+01, 5.88354635e+00, -4.07790482e-01,
          -2.70938110e+00, 1.04685555e+01, 5.06666908e+01,
          2.25079775e+00, 4.07495975e+00, -4.90813103e+01,
          -4.71394587e+00, -8.14499378e+00, -6.31970024e+00,
          -2.09992638e+01, -2.24891543e+00, 1.26333389e+01,
          -1.66529236e+01, 2.29031887e+01, -2.91671638e+01,
          -1.21738529e+01, 2.33522817e-01, 5.69408274e+00,
          2.53628750e+01, 2.11682037e-01, 9.00352383e+00, 4.45950270e+00,
          3.75272255e+01, 1.30206690e+01, 8.16450691e+00,
          -7.80244732e+00, 8.97902966e+00, -2.03564453e+01,
          9.45952702e+00, 5.62047005e+00 ]
      - [ 8.20737610e+02, 8.52455139e+02, 3.89370697e+02,
          -2.61272827e+02, 5.48648643e+00, 1.33153725e+01,
          -8.75484467e+01, -1.17143372e+02, 9.90174103e+01,
          -2.28873459e+02, 1.59739866e+01, -3.96613541e+01,
          -2.13695862e+02, 1.88786449e+01, 9.68539124e+01,
          -9.55340118e+01, -1.46729553e+02, 1.41613449e+02,
          -6.90064926e+01, 4.29258347e+01, 3.03545876e+01,
          1.33744822e+01, -6.52154999e+01, -3.47396507e+01,
          -5.46828270e+01, 7.36684561e+00, -5.39567719e+01,
          1.03169136e+01, -5.51817358e-01, 4.53741341e+01,
          6.63316040e+01, -4.91815109e+01, -5.46906166e+01,
          -6.23856688e+00, -8.42654648e+01, -3.86201439e+01,
          3.77209511e+01, -5.76695299e+00, -2.50461636e+01,
          3.47479820e+01, -1.94666119e+01, 2.43909912e+01,
          -1.73894157e+01, -7.08800583e+01, -4.19413795e+01,
          -6.75028276e+00, 7.50397968e+00, 1.39575548e+01,
          1.99759560e+01, 2.67437744e+01, 9.99227619e+00,
          -1.92829208e+01, -7.10577345e+00, 1.59306030e+01,
          1.39272909e+01, 1.33077793e+01, 1.18066978e+01,
          -1.58680630e+01, 7.08874404e-01, -3.52862072e+00,
          -1.34461079e+01, -1.04110479e+01, 1.28360415e+01,
          1.56887379e+01, 1.99874096e+01, -9.87476158e+00,
          -2.23375626e+01, 1.88949566e+01, -2.40510559e+01,
          8.31346989e+00, 1.42152605e+01, -1.70188370e+01,
          5.83868742e+00, 1.78724022e+01, -1.92410541e+00,
          -5.57638693e+00, -1.48956385e+01, -3.48024368e+00,
          7.69033098e+00, 7.49711275e+00, -1.11364927e+01,
          5.33231831e+00, 7.85766602e+00, -7.44733572e+00,
          1.59562778e+01, 3.89808798e+00, -1.12915325e+01,
          1.23920126e+01, 1.17766714e+01, 7.18454218e+00, 3.76026845e+00,
          -2.47576447e+01, -1.30465555e+01, -2.21013699e+01,
          1.03962088e+01, 4.03408575e+00, -1.36805117e+00,
          6.58515358e+00, -9.55931759e+00, -5.45003557e+00 ]
      - [ 7.57151184e+02, 8.49793274e+02, 6.35351746e+02, 3.97167053e+02,
          -5.72016418e+02, -4.01185120e+02, -3.92336609e+02,
          2.80389923e+02, -6.80851059e+01, 1.17892433e+02,
          -2.15240601e+02, 9.18401909e+00, -2.32307320e+01,
          1.00669479e+01, -2.19082443e+02, 5.23991882e+02,
          -2.19164749e+02, 1.08749237e+02, -1.44807281e+02,
          -3.04564606e+02, -7.20187302e+01, -1.31508417e+01,
          -2.76051727e+02, -2.38795700e+01, 7.19925928e+00,
          -1.15179832e+02, -4.81394997e+01, -1.09569984e+02,
          1.48624573e+02, 2.23397160e+01, -4.34002266e+01,
          5.65748444e+01, 2.62563648e+01, 6.85854111e+01, 3.44762001e+01,
          1.69691086e+01, 1.67460270e+01, 2.74388981e+01,
          -3.37347069e+01, -4.12943220e+00, 1.34771614e+01,
          -1.71763268e+01, -7.62418556e+00, 6.00778694e+01,
          -5.20942917e+01, -7.31951523e+00, -3.01294632e+01,
          -1.14120722e+01, 1.44525928e+01, 2.08281975e+01,
          -1.71758652e+01, -6.69472885e+01, 3.74620342e+00,
          3.10477219e+01, 1.72980773e+00, 2.12659860e+00, 6.08359575e+00,
          1.83867493e+01, 1.10806341e+01, -9.42276287e+00,
          -9.16512585e+00, 6.92010355e+00, -3.61269736e+00,
          8.81427956e+00, -1.28000565e+01, 1.31629677e+01,
          2.91405153e+00, -4.74841928e+00, -5.94091797e+00,
          -7.21343946e+00, 1.61197510e+01, -5.64614868e+00,
          2.08487129e+00, 1.28686161e+01, -5.75976014e-01,
          8.77757740e+00, 1.29089098e+01, 1.01554041e+01,
          -1.35322990e+01, -4.47672272e+00, 1.55562079e+00,
          -5.77253389e+00, -8.31899548e+00, -2.59349918e+00,
          9.98485756e+00, 4.53059912e-01, -1.01713676e+01,
          -5.70219564e+00, 2.12419486e+00, -8.13205123e-01,
          1.99382782e+00, -2.85769987e+00, 1.22051144e+00,
          1.50568008e-01, -5.77058315e-01, 4.20983553e-01,
          3.81821609e+00, -2.93706679e+00, -6.80803585e+00,
          1.97940195e+00 ]
      - [ 6.08094238e+02, 5.53868225e+02, -8.29318787e+02,
          -7.96801996e+00, -1.59780594e+02, 7.73539062e+02,
          -2.42113403e+02, 5.08274750e+02, -2.04495148e+02,
          4.36645905e+02, -1.29986465e+02, -1.78170914e+02,
          -1.89383286e+02, -1.45117264e+02, 1.53080856e+02,
          -6.83455505e+01, 1.22296249e+02, -3.17632046e+01,
          6.34096742e-01, 3.42166634e+01, 7.01133957e+01, 2.91057854e+01,
          3.43315773e+01, 3.62762985e+01, -1.11864014e+02,
          7.31766462e+00, -4.52319794e+01, -8.86549301e+01,
          -5.23381653e+01, -5.79907646e+01, 1.79708176e+01,
          -2.81492577e+01, 4.18336220e+01, 5.43740807e+01,
          5.22539043e+00, 9.30917435e+01, 2.88916893e+01,
          -1.28854645e+02, 2.84115295e+01, -1.02069807e+01,
          1.92560181e+02, 1.05173592e+02, 1.56221352e+01,
          -2.78303057e-01, -3.70602226e+01, -2.49076862e+01,
          -4.17259636e+01, -4.06361532e+00, 1.93203888e+01,
          -9.58978558e+00, -3.03171682e+00, -4.66020279e+01,
          -4.61090708e+00, 1.04691947e+00, -4.29070663e+01,
          -1.51554613e+01, 1.42708635e+00, -2.08607445e+01,
          3.56631737e+01, 1.60070896e+01, -2.05385113e+01,
          -1.13529444e+01, 9.03298092e+00, -2.78727875e+01,
          -5.60212994e+00, -1.31183624e+01, 2.97792397e+01,
          9.75240421e+00, -6.57557428e-01, 1.47437658e+01,
          -1.29742594e+01, -3.62726837e-01, 7.88586521e+00,
          3.60503101e+00, -5.93815994e+00, -7.81645298e+00,
          2.97821224e-01, 1.18375769e+01, -5.68303251e+00,
          -1.62096443e+01, 1.58070936e+01, -1.19270730e+00,
          -4.04570770e+00, 8.05803680e+00, 2.27543497e+00,
          6.16632223e+00, -2.56675673e+00, 1.30369616e+01,
          -7.92632699e-01, -1.37530398e+00, 3.94780064e+00,
          -1.03632650e+01, 5.43270528e-01, 2.09923601e+00,
          8.38433838e+00, -8.17884254e+00, 8.41333866e+00,
          5.81039333e+00, -7.41827428e-01, -6.37834358e+00 ]
      - [ 3.99756256e+02, 7.99239868e+02, -6.75399719e+02,
          4.51733368e+02, -3.47792999e+02, 6.91239258e+02,
          -4.62767181e+02, 2.95032410e+02, -2.06603394e+02,
          5.07812805e+02, -1.32999741e+02, -9.95465546e+01,
          -3.12395172e+02, -1.40799301e+02, 6.77868881e+01,
          -6.97985611e+01, -1.46821899e+02, 1.11685982e+01,
          -1.01371059e+01, -1.39478134e+02, -1.13767639e+02,
          -8.97205811e+01, -5.03041124e+00, -4.45694771e+01,
          6.75255585e+01, 3.35858040e+01, 6.19444313e+01, 4.02681828e+00,
          1.36758209e+02, 6.89446335e+01, 6.87282205e-01, 4.36664925e+01,
          -3.52699966e+01, -8.19260635e+01, -4.68139267e+01,
          -8.35116863e+00, 4.23200816e-01, 3.05809784e+01,
          1.83882446e+01, 3.96170273e+01, -8.60317764e+01,
          -5.75677872e+01, 2.68621540e+01, -8.01126022e+01,
          1.38408098e+01, 5.85174501e-01, 1.69665420e+00,
          -1.86466942e+01, -4.25706291e+01, -2.71719818e+01,
          -2.09433126e+00, 9.25266495e+01, 2.83327923e+01,
          -2.13388672e+01, -1.76597233e+01, -2.03487186e+01,
          4.33394966e+01, -1.01901741e+01, 5.27723885e+01,
          5.02303457e+00, -5.15989542e+00, 1.48546877e+01,
          4.38804550e+01, -8.36425018e+00, -1.28952446e+01,
          -1.19722881e+01, 2.87547493e+01, 2.53915653e+01,
          -2.67423797e+00, 2.60616398e+01, -1.36519165e+01,
          2.72197208e+01, -2.82430420e+01, -9.73154640e+00,
          -1.80342712e+01, -5.71084642e+00, 7.56271410e+00,
          -6.50836897e+00, 1.41233120e+01, -1.16636915e+01,
          -1.90972865e+00, -1.45058155e+01, 2.05271864e+00,
          2.04902720e+00, -2.98222470e+00, -9.95120144e+00,
          8.97490788e+00, -5.20438337e+00, 2.64131999e+00,
          -5.58863688e+00, -4.82696819e+00, -2.70355844e+00,
          1.18871823e-01, 6.14366353e-01, 1.67963159e+00, 9.18766975e+00,
          2.31746840e+00, -6.20805550e+00, -5.22648931e-01,
          -3.47474241e+00 ]
      - [ -3.80085358e+02, 9.94333374e+02, 3.90996948e+02,
          1.32977097e+02, -3.04934387e+02, 1.53507965e+02,
          1.25583870e+02, 4.67222309e+00, -7.11759949e+01,
          6.28375702e+01, -3.71576262e+00, -6.30771279e-01,
          1.19173935e+02, 4.25018616e+01, -1.32012386e+01,
          -3.50306931e+01, 6.53029099e+01, -5.37638741e+01,
          -2.39171181e+01, 6.80082092e+01, -6.86932678e+01,
          1.25377060e+02, -6.45723629e+00, -7.43664932e+01,
          7.91500244e+01, 2.23910046e+01, 7.34877853e+01,
          -1.62064342e+01, -3.25817261e+01, -4.20116653e+01,
          -4.25616264e+01, 2.30575848e+01, -4.08955994e+01,
          -1.67566929e+01, -1.93452702e+01, 5.86254454e+00,
          6.21302261e+01, -1.78276844e+01, 1.32270002e+01,
          -1.08164444e+01, 2.44834652e+01, -2.37551689e+01,
          7.01660967e+00, 2.33160210e+01, -5.91117334e+00,
          -2.00157471e+01, -3.27471924e+01, 8.54914188e+00,
          2.74699955e+01, 1.27906265e+01, 3.43187943e+01,
          -1.77703686e+01, -1.38515911e+01, 2.40082588e+01,
          -8.46691322e+00, -6.39290428e+00, 8.55620193e+00,
          3.04204769e+01, 9.11798477e+00, -1.31391039e+01,
          -1.48067904e+01, 1.65493813e+01, 2.49721489e+01,
          -1.44114006e+00, 3.40162396e+00, -7.04367161e+00,
          5.97225618e+00, 2.05215378e+01, -2.13623581e+01,
          1.59616108e+01, 3.42214990e+00, -5.67585409e-01,
          -2.98431263e+01, 1.54796696e+01, -9.24826503e-01,
          -1.58963509e+01, -1.95061016e+01, -9.75843239e+00,
          1.04413223e+00, 1.15314188e+01, -2.12599068e+01,
          1.35826283e+01, -6.01722479e+00, 1.03133144e+01,
          -7.08651590e+00, -1.22436342e+01, -1.04781067e+00,
          -1.63609753e+01, -3.49197960e+01, -1.05667639e+01,
          1.43109980e+01, 1.82337761e+01, -1.71252403e+01,
          -1.94361591e+01, 2.68314075e+00, -8.42156768e-01,
          -7.44403696e+00, -1.46041470e+01, -6.22002697e+00,
          1.24872704e+01 ]
      - [ 7.08773438e+02, 9.78170593e+02, 5.56548462e+02,
          -1.69073151e+02, -1.16504669e+02, 4.04642296e+01,
          1.78983479e+01, 8.78994656e+00, -6.65026703e+01,
          -1.05389557e+02, 8.23412018e+01, -8.76152725e+01,
          -9.55659962e+00, 2.81564655e+01, 5.71333923e+01,
          -4.97405319e+01, -7.03235168e+01, 6.58169098e+01,
          4.27227859e+01, 8.64889050e+00, 6.17970848e+01, 2.98636360e+01,
          8.20305939e+01, -7.40912170e+01, 2.71144218e+01,
          -4.91429329e+00, 1.36595062e+02, 2.70971432e+01,
          3.35545588e+00, -1.02958313e+02, -4.04282417e+01,
          1.77853642e+01, 1.80199432e+01, -6.84006348e+01,
          1.38542957e+01, 1.34914169e+01, 2.03549519e+01,
          -1.18557847e+00, -2.31843319e+01, -3.92354851e+01,
          -2.93755293e+00, -1.70719376e+01, -1.07315340e+01,
          -4.09642506e+00, -1.53808081e+00, -1.41149683e+01,
          -3.23775268e+00, -2.54048023e+01, -4.54217415e+01,
          -5.12714565e-01, -2.52014751e+01, -5.39198341e+01,
          -7.10615540e+00, 1.38580647e+01, 2.03313046e+01,
          -2.07874336e+01, -6.28748417e+00, 1.15584002e+01,
          3.04974384e+01, 1.74716740e+01, -1.24651737e+01,
          -5.64225674e+00, 9.40885925e+00, -9.62424946e+00,
          -4.45568123e+01, 1.71197796e+01, -1.54835987e+01,
          3.22564316e+01, -1.65313282e+01, 8.51851940e-01,
          -8.57058716e+00, -3.16227512e+01, -8.06881332e+00,
          1.09544783e+01, 1.05228739e+01, 2.23456364e+01, 1.34157906e+01,
          -1.36668930e+01, -4.34804010e+00, 1.02827730e+01,
          -5.50633621e+00, 7.86941338e+00, 4.17105217e+01,
          9.26501942e+00, 8.66661167e+00, -1.22313681e+01,
          -5.85199833e-01, 6.11169863e+00, 7.58044195e+00,
          -9.88142395e+00, -3.79588938e+00, 1.41192818e+00,
          9.54157829e+00, -2.11538601e+01, 9.39857960e+00,
          1.60097837e+00, 7.46199310e-01, 2.40697136e+01,
          -4.52650690e+00, -4.59442520e+00 ]
      - [ -3.52894257e+02, 9.40691833e+02, 5.39398499e+02,
          2.48817169e+02, -2.73458679e+02, -6.76303329e+01,
          6.79057693e+01, -1.44083710e+01, -1.13084351e+02,
          1.50515533e+02, -6.35398560e+01, -3.39659042e+01,
          2.12410400e+02, -9.58833084e+01, -9.76706543e+01,
          5.07357025e+01, 6.82730331e+01, -9.87345886e+01,
          6.67656279e+00, -2.88024101e+01, -1.27716110e+02,
          1.43473663e+02, -5.69548264e+01, -1.58483305e+01,
          7.69866257e+01, -1.04904947e+01, 4.96470108e+01,
          -4.44575462e+01, 8.44982147e+00, 5.17449760e+01,
          -2.47962284e+01, -2.74127121e+01, -6.98527756e+01,
          5.53144217e+00, -1.73413544e+01, 2.16309261e+01,
          1.01066612e+02, 2.39000721e+01, 3.49345551e+01,
          -1.22558632e+01, 3.53018646e+01, 1.96823826e+01,
          -3.09478855e+01, -1.02855814e+00, 3.30308113e+01,
          1.36712189e+01, -3.76182899e+01, 3.63822556e+01,
          1.22829151e+01, -1.94085598e+01, 5.40344276e+01,
          3.82113762e+01, 8.02788258e+00, -4.46519966e+01,
          1.81461773e+01, 4.01403732e+01, -1.68348217e+01,
          2.82542915e+01, 1.12921610e+01, -2.63401546e+01,
          2.32158288e-01, 4.57143831e+00, 3.54890442e+00,
          -1.22634268e+01, 3.95863647e+01, -5.51860857e+00,
          -1.55820770e+01, 6.72570801e+00, -3.52803087e+00,
          -1.09087172e+01, -3.24274254e+00, 8.60529232e+00,
          6.23875380e+00, -4.14797707e+01, 2.89320874e+00,
          1.18952875e+01, -1.74917755e+01, 6.94367075e+00,
          1.05612631e+01, 2.69140968e+01, 1.83893738e+01, 1.82296257e+01,
          2.85267220e+01, -1.54704199e+01, -1.28893757e+01,
          2.94734306e+01, 4.56977987e+00, 2.34964771e+01, 2.60640793e+01,
          2.36765900e+01, -6.15186274e-01, -7.72685385e+00,
          1.79268532e+01, 1.83219070e+01, 1.72302704e+01,
          -4.56992674e+00, 1.81840000e+01, 1.68028927e+01,
          3.53558278e+00, -5.30461264e+00 ]
      - [ -1.42180884e+03, 4.74424744e+01, -5.04399750e+02,
          -6.87690002e+02, 3.53959579e+01, 3.24774432e+00,
          9.79696884e+01, -1.71557083e+02, 1.80538193e+02,
          -7.31988068e+01, 8.29103546e+01, 2.61367493e+01,
          -2.80884460e+02, -1.07902809e+02, -1.71742065e+02,
          -1.33362837e+01, 8.08354874e+01, 7.76731339e+01,
          1.98787003e+01, -1.40489006e+00, -1.30184372e+02,
          9.80332794e+01, 5.74100542e+00, -3.17798347e+01,
          2.60583611e+01, 2.49542885e+01, 5.41620178e+01,
          -7.32508063e-01, -1.97693574e+00, -2.02172070e+01,
          1.35443716e+01, 1.23643599e+01, 5.00391426e+01, 2.34852200e+01,
          1.07423220e+01, 3.37916641e+01, -3.93563766e+01,
          -1.75832863e+01, -1.41300589e-01, -1.74134903e+01,
          -1.72484627e+01, -3.77983356e+00, 2.50414443e+00,
          2.51870537e+01, -2.74015980e+01, 3.98277245e+01,
          4.28110809e+01, -3.24467201e+01, -1.33809729e+01,
          2.30258312e+01, 2.90971394e+01, -2.29007092e+01,
          -4.93029416e-01, -4.38209496e+01, 2.89690733e+00,
          2.78599319e+01, 2.08542900e+01, -2.02959290e+01,
          6.43584061e+00, -1.35093307e+01, -1.02774277e+01,
          -9.71325302e+00, -6.79013252e+00, 6.36109924e+00,
          2.35375881e+01, 8.47405243e+00, 1.83443108e+01,
          -4.17195022e-01, -3.60986400e+00, 3.28668952e-01,
          2.33501124e+00, 7.90127468e+00, 4.88291532e-01, 1.63414555e+01,
          -1.70740438e+00, 2.43477631e+00, -2.40878153e+00,
          1.26133847e+00, -4.92872858e+00, 1.18510828e+01,
          1.29876614e+01, 1.71325469e+00, 2.99019313e+00, 2.21413493e+00,
          6.54893541e+00, -5.87758970e+00, -1.87099767e+00,
          -1.39253044e+01, -1.75577164e+00, -1.44677916e+01,
          9.33844185e+00, -4.40817881e+00, 1.27546291e+01,
          1.92121267e+00, -6.36305857e+00, -5.48590088e+00,
          7.25841570e+00, -1.93936718e+00, -8.85841179e+00,
          -9.16556072e+00 ]
      - [ -1.40779565e+03, 8.86622467e+01, -4.83589844e+02,
          -6.74351929e+02, 2.66378021e+01, 4.95815134e+00,
          1.28474304e+02, -1.98685211e+02, 1.57670395e+02,
          -4.44022598e+01, 8.32446594e+01, 1.24126558e+01,
          -2.75556427e+02, -9.69681549e+01, -1.65756683e+02,
          -3.78750534e+01, 8.06644897e+01, 9.76768265e+01,
          1.65716839e+01, -9.58911228e+00, -1.28183044e+02,
          7.32086639e+01, -1.93113842e+01, -2.08130894e+01,
          2.08960686e+01, 1.49297190e+01, 4.36907234e+01,
          -1.34152260e+01, -1.26612587e+01, -1.33600273e+01,
          4.77724600e+00, 8.13717937e+00, 4.56884842e+01, 2.47266941e+01,
          6.57726955e+00, 2.56105728e+01, -1.95988560e+01,
          -1.66783676e+01, 1.26366959e+01, -2.79748154e+01,
          -1.39625998e+01, -1.02436142e+01, 1.49949484e+01,
          3.80738411e+01, -1.59201040e+01, 7.64704180e+00,
          2.90737686e+01, -3.96985512e+01, -1.37963037e+01,
          6.72569370e+00, 8.48410606e+00, -1.17920084e+01,
          5.13706970e+00, -2.50229664e+01, -1.08758602e+01,
          2.51212044e+01, 1.01052389e+01, -5.86533070e+00,
          3.09332132e-01, -1.85189896e+01, -6.18722582e+00,
          -5.74061811e-01, -1.57568574e+00, 5.31213284e+00,
          2.61112080e+01, 2.04799690e+01, 2.39383698e+01, 8.42046547e+00,
          2.72864962e+00, 6.75168896e+00, -3.61094587e-02,
          1.00839376e+01, 4.69612455e+00, 1.94417620e+00,
          -4.65565348e+00, 3.66500187e+00, 5.58181810e+00,
          2.95815492e+00, -7.82402706e+00, 1.15626278e+01,
          -1.75871563e+00, -1.71653163e+00, 9.09584236e+00,
          3.91351175e+00, 3.29563594e+00, 2.13166070e+00,
          -1.63462937e+00, -3.22172666e+00, 1.32506117e-01,
          -8.37294865e+00, -1.07497644e+01, -6.77658367e+00,
          9.27551365e+00, -1.85166323e+00, 9.32201481e+00,
          -3.71752620e-01, 2.12512255e+00, -1.43619132e+00,
          8.83270454e+00, 5.90267062e-01 ]
      - [ -1.43081067e+03, 5.38598137e+01, -5.09157166e+02,
          -6.71883484e+02, 7.97560120e+01, -1.10243273e+01,
          1.09970459e+02, -1.46234375e+02, 2.21849899e+02,
          -5.88781967e+01, 4.93122101e+01, 1.86838379e+01,
          -2.72448334e+02, -1.28700760e+02, -1.51741943e+02,
          2.56867867e+01, 7.78459473e+01, 8.56008530e+01, 7.58567190e+00,
          3.14483509e+01, -1.54225571e+02, 6.66432800e+01,
          -8.12416267e+00, -2.44505901e+01, 3.31754761e+01,
          -2.19564724e+00, 4.32431717e+01, -2.19125539e-01,
          -1.32049584e+00, -2.65151005e+01, -4.07654285e+00,
          2.05975132e+01, 3.40095558e+01, 1.28185120e+01, 1.56883583e+01,
          1.57120562e+01, -5.11610222e+01, -2.64462452e+01,
          -8.10466957e+00, 2.87205553e+00, -1.02048149e+01,
          -7.55727100e+00, -4.99020863e+00, 1.51935654e+01,
          -1.59734993e+01, 2.29521961e+01, 1.37322397e+01,
          -9.44225502e+00, -1.91715336e+01, 1.39872265e+01,
          4.00465393e+01, -1.26995621e+01, -3.57025790e+00,
          -3.60128670e+01, 5.58254719e+00, 1.46309767e+01,
          7.15609646e+00, -2.72937508e+01, -3.38832903e+00,
          -1.45668793e+01, -1.66760197e+01, -4.26911354e+00,
          1.26712370e+01, 4.65243769e+00, 4.89876890e+00, 7.66577530e+00,
          -1.03121471e+00, 7.22095680e+00, 9.88096333e+00,
          -1.73865509e+00, 8.33781338e+00, 1.54632969e+01,
          -8.80851936e+00, 1.62546272e+01, 1.28902054e+00,
          -5.99620152e+00, -1.40540085e+01, 1.63238411e+01,
          -1.69259143e+00, -7.26969337e+00, 8.16199112e+00,
          3.55632377e+00, 6.39797020e+00, 1.66806984e+00,
          -6.40486002e+00, -2.05114484e+00, 5.75778532e+00,
          2.72847509e+00, -2.83742499e+00, -6.82416344e+00,
          1.48084373e+01, -4.69296646e+00, 6.09429216e+00,
          7.61238146e+00, -7.92336893e+00, 6.11009073e+00,
          -7.24054384e+00, 4.30659294e+00, -4.32952595e+00,
          -1.15684576e+01 ]
      - [ -1.20965698e+03, 3.20062531e+02, -5.95853516e+02,
          -3.18798523e+02, 9.33626022e+01, 3.33075943e+01,
          1.11714157e+02, -1.16060707e+02, 2.02620071e+02,
          7.34222565e+01, -1.31071463e+01, 2.08187771e+01,
          1.38485504e+02, -9.25832689e-01, 6.60610733e+01,
          1.37655201e+01, -1.61547089e+02, -7.48820114e+01,
          -4.99170647e+01, -1.87557068e+01, 3.27593460e+01,
          4.68820343e+01, 5.61605568e+01, -2.49845333e+01,
          -7.07287827e+01, 1.11434288e+01, -7.03653526e+00,
          -4.45386810e+01, -4.13330994e+01, 3.64363518e+01,
          5.05256004e+01, -3.54762421e+01, 2.80226479e+01,
          3.72896042e+01, -2.04595337e+01, -9.67247486e+00,
          4.93017006e+01, 1.92783701e+00, 3.73900461e+00, 5.62404776e+00,
          -3.32496223e+01, 1.47825508e+01, -1.54732800e+01,
          5.30715752e+01, -5.99059010e+00, -4.85930395e+00,
          -6.70778131e+00, -6.53193207e+01, 1.33876181e+00,
          2.10368919e+01, -3.22712440e+01, 2.98375835e+01,
          2.14687595e+01, 2.02515469e+01, 3.57960396e+01, 1.91076946e+01,
          1.36114988e+01, 1.80917587e+01, 3.06050491e+01, 3.30516052e+00,
          2.30701942e+01, 6.24447584e+00, -3.97722745e+00,
          -6.44270325e+00, 5.73172379e+00, 9.91801083e-01,
          1.43613520e+01, 4.52153587e+00, -3.91381383e+00,
          -1.31925070e+00, -7.20792437e+00, -1.81970654e+01,
          2.43678894e+01, -2.33625722e+00, -1.79797611e+01,
          -7.61754036e+00, -7.08982325e+00, 2.92954302e+00,
          8.89410591e+00, 3.07986450e+00, -1.81931610e+01,
          -6.98359776e+00, 1.23655164e+00, -4.79227209e+00,
          3.56484723e+00, 1.40754004e+01, -4.81432915e+00,
          -1.03091469e+01, -1.43025899e+00, -6.95513487e+00,
          -7.01860237e+00, 5.63908720e+00, -9.35193825e+00,
          1.15339291e+00, 1.42589035e+01, 1.65464640e+00,
          -3.97097993e+00, -9.90092635e-01, -1.33409700e+01,
          2.67799544e+00 ]
      - [ -1.30954028e+03, 3.41243408e+02, -5.19415955e+02,
          -5.86174255e+02, 2.35415207e+02, 1.85149498e+01,
          -1.40656891e+02, -1.32694321e+02, 2.13493256e+02,
          1.41158524e+02, -1.97787018e+02, 6.70130081e+01,
          1.29311676e+02, -2.78408489e+01, 4.85633316e+01,
          1.82924744e+02, -1.53844662e+01, 3.39560585e+01,
          1.03739227e+02, 2.90883780e+00, 2.08012562e+01,
          -8.63291473e+01, 9.09730835e+01, 4.31925678e+00,
          8.01372757e+01, -1.30862701e+02, -1.13202763e+01,
          7.90855789e+01, 6.75537109e+01, -1.29256866e+02,
          -4.40264740e+01, -2.24959850e+01, -8.60090179e+01,
          -4.82705650e+01, 2.44567051e+01, 2.15934067e+01,
          -6.27518730e+01, -3.76523590e+00, -2.00132523e+01,
          -2.19765396e+01, 4.18089523e+01, 1.01683264e+01,
          5.83530464e+01, -5.96587372e+01, -2.16029415e+01,
          -2.08208084e+01, 1.75371742e+01, 3.74698372e+01,
          -2.38428612e+01, -3.45077858e+01, -1.05312872e+00,
          1.41210823e+01, 2.78200130e+01, 4.36083641e+01,
          -3.71433830e+01, -1.56384430e+01, 4.23305817e+01,
          4.07652473e+00, -3.69298019e+01, -4.10925865e+01,
          -7.30664778e+00, 3.31192225e-01, -2.80675278e+01,
          -2.40473766e+01, 6.12986717e+01, -2.36530704e+01,
          -3.49866104e+01, -2.38722610e+00, 2.31440210e+00,
          -8.80306816e+00, 7.57950497e+00, -2.16032562e+01,
          5.18325996e+00, 1.87418633e+01, -1.61028042e+01,
          8.89564419e+00, -1.85323181e+01, 5.32798433e+00,
          1.08635101e+01, 1.43906679e+01, -4.49380827e+00,
          8.59744167e+00, -2.95278811e+00, 1.40405722e+01,
          2.16404858e+01, 5.02569437e-01, -1.22976236e+01,
          -1.66247406e+01, -1.49986458e+00, -1.11568546e+01,
          -1.07666340e+01, 3.27188778e+00, -3.66979098e+00,
          5.84336710e+00, 1.41845980e+01, -2.43890214e+00,
          -5.49635506e+00, 6.22287083e+00, -2.55107632e+01,
          1.30104792e+00 ]
      - [ 1.09506081e+02, -5.62194824e+02, 2.61382385e+02,
          2.02146057e+02, 6.98469482e+02, 3.38903351e+02, 2.07218918e+02,
          2.79569000e+02, 2.31527084e+02, -2.65540527e+02,
          -1.79629349e+02, 8.18781281e+01, -4.23791809e+01,
          -1.39543333e+01, 1.60316528e+02, -3.25984192e+01,
          -3.06961594e+01, -1.36569061e+02, 8.61161957e+01,
          -6.36667633e+01, -1.45779755e+02, 1.35127306e+01,
          -3.00322285e+01, 1.75900955e+02, -2.28953896e+01,
          1.03092148e+02, 3.49661865e+01, 9.44670181e+01, 1.04734535e+02,
          -6.70319748e+01, -8.52831268e+01, -1.18568878e+02,
          -1.38747859e+00, 1.18996666e+02, -6.76671753e+01,
          -3.89884830e+00, -5.09926498e-01, 3.46853333e+01,
          -7.90349102e+00, -3.64727440e+01, -1.67652264e+01,
          4.71512451e+01, -3.03072910e+01, 6.59475660e+00,
          6.14010000e+00, 8.02511368e+01, -2.10450420e+01,
          1.77273941e+01, 1.56008701e+01, -2.50949535e+01,
          8.70691109e+00, 2.31337051e+01, 1.54987001e+01, 3.60416412e+01,
          -8.92410564e+00, 3.29448581e+00, 8.35625458e+00,
          -7.58186007e+00, 5.13071823e+01, -2.57280540e+01,
          8.98494911e+00, -3.90551147e+01, 1.54700489e+01,
          -1.01954784e+01, -2.74305129e+00, 1.81260586e+01,
          4.11529690e-01, 2.39401169e+01, 5.44904280e+00,
          -5.45708513e+00, 2.03346577e+01, -3.31754608e+01,
          1.49496918e+01, -1.61531887e+01, 1.72562466e+01,
          3.52107430e+00, 2.05825272e+01, 9.27686024e+00,
          -2.67588215e+01, 3.69610190e+00, -2.47168350e+00,
          -7.18158102e+00, -1.45509033e+01, -1.24772596e+01,
          7.41408443e+00, -1.17351732e+01, -2.80710411e+00,
          -2.34316711e+01, -3.44070363e+00, -1.38849964e+01,
          -1.34152460e+01, -9.24375725e+00, 3.76990819e+00,
          -1.19806457e+00, -9.22886610e-01, -4.57458687e+00,
          1.09397984e+01, -5.79691172e+00, 1.05071316e+01,
          4.69036388e+00 ]
      - [ 1.81512805e+03, -1.13124634e+03, 2.42550583e+02,
          -2.28024887e+02, -4.57451202e+02, -5.78474670e+02,
          -1.09059525e+02, -1.43097248e+01, 1.57272415e+02,
          -3.31660538e+01, 8.44286041e+01, 7.82386475e+01,
          -6.04746590e+01, -1.55297699e+02, -1.64144012e+02,
          1.50103287e+02, 3.58936310e+01, -2.84711670e+02,
          1.21234947e+02, 1.15266182e+02, -2.73616467e+01,
          -4.64865303e+01, 5.74063587e+00, -1.06939636e+02,
          -1.60354721e+02, 7.14539642e+01, 3.16058865e+01,
          4.79848022e+01, 6.33061409e+01, 6.19071922e+01, 4.87097473e+01,
          2.88473854e+01, -1.63841721e+02, -5.26228065e+01,
          5.01323051e+01, -3.82960777e+01, 2.80256443e+01,
          -3.44656410e+01, 5.93111229e+01, 6.02531319e+01,
          8.35107269e+01, -7.98872299e+01, -6.75322723e+01,
          2.29011173e+01, -1.20002403e+01, 4.86499596e+01,
          1.13731871e+01, -9.99301624e+00, 5.33197670e+01,
          -6.79464340e+01, -3.43198433e+01, -4.04774904e+00,
          3.18973961e+01, 2.81375065e+01, 2.06837416e+00, 2.11726437e+01,
          9.09573174e+00, -4.82076721e+01, -6.40054226e-01,
          1.21613779e+01, 3.69589901e+00, -1.29666138e+01,
          -3.80791245e+01, -2.07477894e+01, 1.36683149e+01,
          2.52454128e+01, 2.75799007e+01, 3.78897896e+01,
          -1.14422855e+01, -1.38764143e+01, -1.26455793e+01,
          1.43938656e+01, -5.06018019e+00, 4.93785095e+00,
          1.34290056e+01, -1.02238369e+00, 4.89589071e+00,
          -2.77820849e+00, -9.04195213e+00, -2.46860332e+01,
          -8.47002983e+00, -3.31437230e-01, 1.00352964e+01,
          2.76335168e+00, -7.16902733e+00, -8.15370369e+00,
          -1.06609039e+01, -4.58218527e+00, 9.49445343e+00,
          -5.47778606e+00, 2.66962671e+00, 9.30874157e+00,
          -1.80763054e+00, -1.25184765e+01, -9.88963127e+00,
          -9.64649391e+00, 1.58408582e+00, 8.60847855e+00,
          -6.04765892e+00, 3.01511717e+00 ]
      - [ 3.52484894e+02, -9.08154419e+02, 3.82234680e+02,
          1.56509811e+02, 5.84593658e+01, 6.41883240e+02, 3.70995407e+01,
          1.58152695e+02, -4.07865601e+01, -1.58289505e+02,
          -1.60171604e+01, 3.20444832e+01, 2.12127853e+02,
          1.15094557e+01, 7.37971344e+01, 1.41527605e+01,
          -1.28640442e+02, 9.95480728e+00, 2.86406128e+02,
          4.65445480e+01, -9.99980164e+01, 2.72932129e+02,
          5.23252726e+00, 1.55385113e+01, 1.04740517e+02,
          -1.13228249e+02, -3.47793541e+01, 2.02914658e+01,
          6.51994858e+01, 1.00754662e+02, 1.20379738e+02, 4.67584686e+01,
          7.73222504e+01, 2.61373711e+01, 6.46542892e+01,
          -3.15901852e+00, -1.69568291e+01, -5.48987465e+01,
          3.56581078e+01, -5.91486740e+01, -9.20191269e+01,
          3.92606211e+00, -2.26662769e+01, -7.36484375e+01,
          -1.79947033e+01, 1.06174326e+01, -5.67221985e+01,
          -3.56079674e+01, -2.99228916e+01, -7.95152283e+01,
          -2.50636406e+01, -2.50384064e+01, -4.61122780e+01,
          4.21980362e+01, -1.22568054e+01, 6.44834900e+01,
          -4.11998863e+01, -2.00697384e+01, -1.15573053e+01,
          -6.79769230e+00, -3.28333015e+01, -2.63544235e+01,
          5.80048561e-01, -4.82782316e+00, -1.55992346e+01,
          -2.04611721e+01, 2.45630884e+00, -5.53557491e+00,
          -9.85234833e+00, 7.49499381e-01, -2.25404072e+01,
          1.52811708e+01, -9.25708771e+00, 1.82730122e+01,
          3.02335548e+00, 5.06625319e+00, -5.15312791e-01,
          1.69937363e+01, 1.43324881e+01, -4.21778917e+00,
          -6.53669643e+00, 6.31419992e+00, -1.27444115e+01,
          2.16754985e+00, -1.05642653e+01, 1.23041153e+01,
          1.48075187e+00, 1.75674176e+00, -3.00358534e+00,
          7.61230826e-01, 5.35141850e+00, 3.29931617e+00,
          -1.32889688e+00, -4.46500874e+00, 6.60075951e+00,
          -8.80885792e+00, 1.09205949e+00, 2.97947502e+00,
          -1.01029129e+01, 4.22975922e+00 ]
      - [ -1.22371960e+03, -6.99288574e+02, 3.13371582e+02,
          5.46121216e+01, 5.48224731e+02, 5.96710571e+02, 3.61238495e+02,
          1.10673157e+02, 1.81705403e+00, 3.90205688e+01,
          -1.55937607e+02, -8.80007935e+00, -1.18497536e+02,
          9.91392822e+01, -1.02092819e+02, 5.76989784e+01,
          2.33879776e+01, -5.92646637e+01, 2.27176228e+01,
          4.09158745e+01, -3.15351067e+01, -1.32575104e+02,
          -5.08578072e+01, -3.32729506e+00, 2.38827381e+01,
          -1.96419258e+01, 5.09824276e-01, 1.00138947e+02,
          1.61767912e+00, -3.79957008e+01, -5.15586510e+01,
          -1.26448262e+00, 6.98587036e+00, 1.87338886e+01,
          -1.13003855e+01, -5.31352119e+01, 9.03069611e+01,
          -1.90686798e+01, -3.78758926e+01, 2.32404652e+01,
          -2.93407745e+01, 1.89313202e+01, 1.21555891e+01,
          1.69836102e+01, -5.17032290e+00, 3.29698448e+01,
          1.40292513e+00, -5.21985483e+00, -6.05268335e+00,
          -3.61320996e+00, 1.29128799e+01, -3.34104843e+01,
          2.96033802e+01, -1.68854351e+01, 8.09185886e+00,
          7.88730669e+00, 1.39346886e+01, -2.44659901e+01,
          -3.21315551e+00, -1.65518837e+01, 1.27515059e+01,
          8.86024857e+00, -1.46556206e+01, -1.57567739e+01,
          -5.54275370e+00, -8.74113464e+00, -2.50772247e+01,
          7.67782354e+00, 1.33723078e+01, 2.36387939e+01,
          -5.61620903e+00, -9.89425278e+00, -2.17282734e+01,
          -2.82835503e+01, -3.70534210e+01, 2.75332302e-01,
          -1.09117632e+01, -7.75408363e+00, -9.30805016e+00,
          -2.50304151e+00, -1.98492861e+00, 8.07362139e-01,
          -5.24616575e+00, -3.52333713e+00, -1.58841085e+00,
          -4.48051739e+00, 8.01124477e+00, 2.40282593e+01,
          -5.83279514e+00, -1.30818260e+00, 1.12727289e+01,
          2.24012375e+01, -1.43037140e+00, -2.19450831e+00,
          4.95739269e+00, -1.76044941e+01, 2.74224415e+01,
          -1.82078409e+00, -1.34575100e+01, -1.84411240e+01 ]
      - [ 4.18255005e+02, -1.14561755e+03, 1.25288498e+02,
          -7.10064392e+01, -4.08527985e+02, 4.36033905e+02,
          -6.67977829e+01, -2.30081482e+02, -2.77567921e+01,
          9.39280167e+01, -5.14452515e+01, 8.02677612e+01,
          9.47238617e+01, 9.49174042e+01, 1.31067596e+02,
          -1.52063721e+02, -4.36708298e+01, 8.13332748e+01,
          6.44360504e+01, 1.98200245e+01, -6.53266449e+01,
          1.05938286e+02, -4.98310804e-01, 7.35252533e+01,
          8.31777878e+01, -1.08960876e+02, 6.22451553e+01,
          6.16077690e+01, 3.59704132e+01, 6.02543907e+01, 7.51764145e+01,
          2.72069244e+01, -1.73126698e+01, 3.14888287e+01,
          9.34656754e+01, -7.13234787e+01, -4.44782906e+01,
          5.01927338e+01, 2.66604252e+01, 5.53551254e+01, 4.85143929e+01,
          1.13015318e+00, -1.76704156e+00, 5.42198677e+01,
          -3.85385094e+01, -5.24742546e+01, 5.21813393e+01,
          -1.31115971e+01, 3.84813042e+01, 3.36713362e+00,
          6.90742416e+01, -1.98983822e+01, 1.84991151e-01,
          -5.62587833e+00, -3.87598419e+01, -6.28806639e+00,
          3.68903580e+01, -5.56193237e+01, -1.43376696e+00,
          5.88420868e+00, 5.83899078e+01, 4.81178398e+01, 4.70991802e+00,
          -3.33620186e+01, -4.06046829e+01, -2.18007298e+01,
          8.67224979e+00, 2.69651546e+01, -1.93389511e+01,
          1.71073456e+01, 3.18509445e+01, -2.62387543e+01,
          3.78613014e+01, -1.88021107e+01, -3.61878920e+00,
          1.56087589e+01, 4.58842707e+00, 7.87375164e+00, 6.00546408e+00,
          2.17474670e+01, -2.37207961e+00, -3.03799391e+00,
          -8.69009495e+00, -1.60417709e+01, 1.71514606e+01,
          -1.23802700e+01, -3.94060993e+00, 7.69034243e+00,
          -5.92962551e+00, 1.54124537e+01, -8.60127258e+00,
          3.40281653e+00, -4.90505123e+00, 2.75226021e+00,
          -7.26289654e+00, 1.30805416e+01, 7.75442982e+00,
          6.23603678e+00, 3.75512910e+00, -4.56181765e+00 ]
      - [ 2.37124527e+02, -1.13496460e+03, 1.41193390e+00,
          8.67941952e+00, -5.53008057e+02, 5.02247772e+02,
          -2.14533463e+01, -3.27447723e+02, -1.43521759e+02,
          -5.51478882e+01, -1.26156860e+02, 1.66460922e+02,
          3.68643646e+01, -1.94860897e+01, 7.46693649e+01,
          -4.79060516e+01, -8.84989319e+01, 1.18169815e+02,
          -1.15566727e+02, -1.64908161e+01, -1.98025398e+01,
          7.85706100e+01, -1.50429277e+01, 5.49231834e+01,
          1.15305719e+01, -5.27536392e+00, 2.14857826e+01,
          4.48880501e+01, 1.39154329e+01, -2.20048103e+01,
          -8.00838661e+00, 5.75990028e+01, -1.50187922e+01,
          -2.94072113e+01, -1.36839352e+01, 3.21982880e+01,
          -5.32333279e+00, 8.30341034e+01, -2.69948807e+01,
          2.11997318e+01, -5.79006337e-02, 5.08822708e+01,
          2.36576214e+01, 4.18667259e+01, 7.70044744e-01,
          -9.71905994e+00, 1.87366924e+01, 9.54837513e+00,
          4.22633781e+01, 1.31297722e+01, -3.99464035e+01,
          9.41050053e+00, -2.12596607e+01, -2.10488796e+01,
          4.60638189e+00, -4.70973969e+00, 2.01666832e+01,
          -1.26959486e+01, -4.75800371e+00, 5.70130348e+00,
          -2.24099064e+01, -2.39557222e-01, -2.12185860e+01,
          -3.09867496e+01, 5.23406696e+00, 2.81038189e+01,
          5.38927746e+00, -2.34525928e+01, -3.30902362e+00,
          2.03602505e+01, -3.33115005e+01, -2.01043282e+01,
          -1.08245344e+01, 6.53552771e+00, 2.25911808e+01,
          -1.91779804e+01, 4.43651152e+00, 5.15907478e+00,
          1.42724075e+01, -1.73278828e+01, 2.26757221e+01,
          1.52307892e+01, 6.35183716e+00, 1.32253218e+01,
          -9.24124908e+00, 1.03746777e+01, 3.48689032e+00,
          1.44017744e+00, -1.51874693e-02, 8.94333649e+00,
          -1.19586639e+01, 8.89479828e+00, -8.47192383e+00,
          -1.23630285e+01, -3.26614022e+00, 4.81767178e+00,
          8.77846909e+00, 6.78570151e-01, -3.94351411e+00,
          4.86967325e-01 ]
      - [ 1.88392151e+02, -1.23359155e+03, 1.63369949e+02,
          -4.41250496e+01, -9.38709961e+02, 2.88229370e+02,
          -3.35061523e+02, -1.51255371e+02, 4.48583603e+01,
          -1.75897278e+02, -8.62761841e+01, 2.79070984e+02,
          -7.65533218e+01, -2.09137848e+02, 1.40685902e+01,
          -1.42768417e+02, 3.72859840e+01, -2.71313416e+02,
          -1.16963737e+02, -1.34356750e+02, -1.38276970e+00,
          -1.98060135e+02, -6.47360077e+01, -1.04299728e+02,
          2.69727345e+01, -6.82639236e+01, 3.30753021e+01,
          -1.87574387e+01, -8.94853973e+01, -1.38400894e+02,
          5.01594305e+00, -7.03943176e+01, -8.96478653e+01,
          8.19089353e-01, 4.27095833e+01, -1.00153761e+01,
          4.36191940e+01, -2.33341217e+01, 8.99998627e+01,
          -5.10530243e+01, -5.78006630e+01, -2.38545933e+01,
          1.11469975e+01, 1.68653564e+01, -8.35624084e+01,
          1.28560591e+01, -3.03900566e+01, -6.49676085e-01,
          -1.32632380e+01, 8.11753750e+00, -3.00169907e+01,
          4.68595028e+00, -8.53607635e+01, -4.66809883e+01,
          -9.25989056e+00, 1.26615989e+00, -5.87610664e+01,
          -2.57138844e+01, 8.27021599e+00, -2.91942749e+01,
          -6.71859741e-01, -3.55308354e-02, 1.46760523e-01,
          8.83752346e+00, -8.62872696e+00, -4.78659630e+01,
          2.10300350e+00, -1.37264528e+01, 1.95559845e+01,
          -4.71948051e+00, 1.23398752e+01, -1.81687222e+01,
          1.37872705e+01, -1.41709948e+00, -9.66636467e+00,
          4.38930130e+00, 1.60297084e+00, -5.60956287e+00,
          5.88724518e+00, -8.73188913e-01, -8.71936607e+00,
          7.49211311e+00, -1.05490217e+01, 1.55958712e+00,
          1.07547216e+01, -1.94226730e+00, 1.48305712e+01,
          -4.72132111e+00, -2.28316522e+00, 2.20295501e+00,
          1.33487010e+00, -2.47436166e+00, 1.40204401e+01,
          -1.62706718e-01, 8.88717461e+00, 7.22983217e+00,
          -1.29389286e+01, -4.90122175e+00, -5.35327435e-01,
          2.49090672e+00 ]
      - [ 1.50027069e+02, -1.09238159e+03, -3.24658640e-02,
          6.91902618e+01, -2.13156189e+02, 5.52272156e+02,
          1.92451248e+02, -2.96340546e+02, -1.55326721e+02,
          1.43142672e+01, -1.65950867e+02, 2.42230396e+01,
          4.93965759e+01, 3.93111343e+01, 2.47966099e+01, 1.64770706e+02,
          -9.77522583e+01, 2.12196747e+02, -2.09650555e+01,
          5.17028770e+01, -2.30143619e+00, 6.84421768e+01,
          2.48173294e+01, 1.10876686e+02, -7.03568649e+01,
          1.51132584e+02, 2.76844597e+01, -1.20203514e+01,
          -2.60668182e+01, 1.24369669e+01, 3.68927460e+01,
          1.00608444e+02, -1.04502136e+02, -5.29234657e+01,
          -1.48110132e+01, 2.04558830e+01, 1.53012295e+01,
          -5.99831200e+01, -2.06701393e+01, -2.75786247e+01,
          1.27118673e+01, 4.07884979e+00, 2.58533039e+01, 2.16171474e+01,
          1.89255257e+01, 3.08661060e+01, 3.67023396e+00,
          -2.08845043e+01, -2.84478798e+01, -7.09163570e+00,
          -3.49137573e+01, -3.26802301e+00, -3.37003469e+00,
          -3.19230318e-01, -2.87538929e+01, -2.29556046e+01,
          -4.65807343e+01, 4.33546295e+01, -2.42510223e+00,
          -1.46476583e+01, -3.11949024e+01, 3.39133811e+00,
          -1.21443863e+01, 3.59470863e+01, -7.01238298e+00,
          -3.98196793e+01, 4.52131605e+00, 4.23639566e-01,
          1.60737057e+01, -1.56129436e+01, 2.51009445e+01,
          3.44177170e+01, 2.52670879e+01, -2.42115955e+01,
          -4.83905792e+01, 1.69342422e+01, -5.28659105e+00,
          -2.45352650e+01, -3.13000679e+01, 2.10741844e+01,
          -2.59026599e+00, -1.74613476e+01, -1.09979749e+00,
          -2.00447235e+01, 9.39740944e+00, -3.22203865e+01,
          -8.28733349e+00, -2.30606785e+01, 2.17757225e+01,
          8.86620903e+00, 1.42329521e+01, -3.85957837e+00,
          -5.59984970e+00, -8.23612595e+00, -1.29203606e+01,
          7.46046829e+00, 1.86132107e+01, 8.63199615e+00, 4.94767237e+00,
          1.17275059e+00 ]
      - [ 1.89092484e+02, -1.21072058e+03, 8.58677826e+01,
          -4.11604691e+00, -5.68562439e+02, 2.54303665e+02,
          2.84401107e+00, -2.41245255e+02, -9.42382507e+01,
          -7.75946999e+00, -1.05793171e+01, 1.30778168e+02,
          4.77719078e+01, -1.52752289e+02, -4.37503128e+01,
          1.12618027e+02, 8.24985962e+01, 5.42837296e+01,
          -9.43611221e+01, 7.15983963e+01, 1.38678329e+02,
          -2.63166809e+01, -1.64230175e+01, -7.43642883e+01,
          -2.49742508e+01, 4.93997955e+01, -8.76850052e+01,
          -7.16758871e+00, -2.43430996e+01, -1.52366552e+01,
